digraph Tree {
node [shape=box, style="filled", color="black"] ;
0 [label="Previous Scores <= 72.5\ngini = 0.732\nsamples = 7898\nvalue = [214, 1797, 2648, 2396, 843]\nclass = good (2)", fillcolor="#f6fefc"] ;
1 [label="Previous Scores <= 54.5\ngini = 0.596\nsamples = 4371\nvalue = [214, 1797, 2090, 270, 0]\nclass = good (2)", fillcolor="#e8fcf8"] ;
0 -> 1 [labeldistance=2.5, labelangle=45, headlabel="True"] ;
2 [label="Hours Studied <= 7.5\ngini = 0.478\nsamples = 1994\nvalue = [214, 1361, 419, 0, 0]\nclass = low (1)", fillcolor="#b0ef89"] ;
1 -> 2 ;
3 [label="Hours Studied <= 2.5\ngini = 0.368\nsamples = 1536\nvalue = [214, 1196, 126, 0, 0]\nclass = low (1)", fillcolor="#9dec6c"] ;
2 -> 3 ;
4 [label="Previous Scores <= 45.5\ngini = 0.474\nsamples = 452\nvalue = [174, 278, 0, 0, 0]\nclass = low (1)", fillcolor="#cef5b5"] ;
3 -> 4 ;
5 [label="Previous Scores <= 42.5\ngini = 0.286\nsamples = 168\nvalue = [139, 29, 0, 0, 0]\nclass = very low (0)", fillcolor="#ea9b62"] ;
4 -> 5 ;
6 [label="Sample Question Papers Practiced <= 8.5\ngini = 0.104\nsamples = 91\nvalue = [86, 5, 0, 0, 0]\nclass = very low (0)", fillcolor="#e78845"] ;
5 -> 6 ;
7 [label="Previous Scores <= 41.5\ngini = 0.051\nsamples = 77\nvalue = [75, 2, 0, 0, 0]\nclass = very low (0)", fillcolor="#e6843e"] ;
6 -> 7 ;
8 [label="gini = 0.0\nsamples = 47\nvalue = [47, 0, 0, 0, 0]\nclass = very low (0)", fillcolor="#e58139"] ;
7 -> 8 ;
9 [label="Sleep Hours <= 6.5\ngini = 0.124\nsamples = 30\nvalue = [28, 2, 0, 0, 0]\nclass = very low (0)", fillcolor="#e78a47"] ;
7 -> 9 ;
10 [label="gini = 0.0\nsamples = 18\nvalue = [18, 0, 0, 0, 0]\nclass = very low (0)", fillcolor="#e58139"] ;
9 -> 10 ;
11 [label="Sample Question Papers Practiced <= 4.5\ngini = 0.278\nsamples = 12\nvalue = [10, 2, 0, 0, 0]\nclass = very low (0)", fillcolor="#ea9a61"] ;
9 -> 11 ;
12 [label="gini = 0.0\nsamples = 7\nvalue = [7, 0, 0, 0, 0]\nclass = very low (0)", fillcolor="#e58139"] ;
11 -> 12 ;
13 [label="Sleep Hours <= 8.5\ngini = 0.48\nsamples = 5\nvalue = [3, 2, 0, 0, 0]\nclass = very low (0)", fillcolor="#f6d5bd"] ;
11 -> 13 ;
14 [label="Sleep Hours <= 7.5\ngini = 0.444\nsamples = 3\nvalue = [1, 2, 0, 0, 0]\nclass = low (1)", fillcolor="#bdf29c"] ;
13 -> 14 ;
15 [label="gini = 0.0\nsamples = 1\nvalue = [0, 1, 0, 0, 0]\nclass = low (1)", fillcolor="#7be539"] ;
14 -> 15 ;
16 [label="Sample Question Papers Practiced <= 6.5\ngini = 0.5\nsamples = 2\nvalue = [1, 1, 0, 0, 0]\nclass = very low (0)", fillcolor="#ffffff"] ;
14 -> 16 ;
17 [label="gini = 0.0\nsamples = 1\nvalue = [0, 1, 0, 0, 0]\nclass = low (1)", fillcolor="#7be539"] ;
16 -> 17 ;
18 [label="gini = 0.0\nsamples = 1\nvalue = [1, 0, 0, 0, 0]\nclass = very low (0)", fillcolor="#e58139"] ;
16 -> 18 ;
19 [label="gini = 0.0\nsamples = 2\nvalue = [2, 0, 0, 0, 0]\nclass = very low (0)", fillcolor="#e58139"] ;
13 -> 19 ;
20 [label="Sleep Hours <= 6.0\ngini = 0.337\nsamples = 14\nvalue = [11, 3, 0, 0, 0]\nclass = very low (0)", fillcolor="#eca36f"] ;
6 -> 20 ;
21 [label="gini = 0.0\nsamples = 7\nvalue = [7, 0, 0, 0, 0]\nclass = very low (0)", fillcolor="#e58139"] ;
20 -> 21 ;
22 [label="Extracurricular Activities <= 0.5\ngini = 0.49\nsamples = 7\nvalue = [4, 3, 0, 0, 0]\nclass = very low (0)", fillcolor="#f8e0ce"] ;
20 -> 22 ;
23 [label="Sleep Hours <= 7.5\ngini = 0.48\nsamples = 5\nvalue = [2, 3, 0, 0, 0]\nclass = low (1)", fillcolor="#d3f6bd"] ;
22 -> 23 ;
24 [label="Previous Scores <= 41.0\ngini = 0.444\nsamples = 3\nvalue = [2, 1, 0, 0, 0]\nclass = very low (0)", fillcolor="#f2c09c"] ;
23 -> 24 ;
25 [label="gini = 0.0\nsamples = 1\nvalue = [1, 0, 0, 0, 0]\nclass = very low (0)", fillcolor="#e58139"] ;
24 -> 25 ;
26 [label="gini = 0.5\nsamples = 2\nvalue = [1, 1, 0, 0, 0]\nclass = very low (0)", fillcolor="#ffffff"] ;
24 -> 26 ;
27 [label="gini = 0.0\nsamples = 2\nvalue = [0, 2, 0, 0, 0]\nclass = low (1)", fillcolor="#7be539"] ;
23 -> 27 ;
28 [label="gini = 0.0\nsamples = 2\nvalue = [2, 0, 0, 0, 0]\nclass = very low (0)", fillcolor="#e58139"] ;
22 -> 28 ;
29 [label="Hours Studied <= 1.5\ngini = 0.429\nsamples = 77\nvalue = [53, 24, 0, 0, 0]\nclass = very low (0)", fillcolor="#f1ba93"] ;
5 -> 29 ;
30 [label="Sample Question Papers Practiced <= 5.5\ngini = 0.213\nsamples = 33\nvalue = [29, 4, 0, 0, 0]\nclass = very low (0)", fillcolor="#e99254"] ;
29 -> 30 ;
31 [label="gini = 0.0\nsamples = 18\nvalue = [18, 0, 0, 0, 0]\nclass = very low (0)", fillcolor="#e58139"] ;
30 -> 31 ;
32 [label="Previous Scores <= 44.5\ngini = 0.391\nsamples = 15\nvalue = [11, 4, 0, 0, 0]\nclass = very low (0)", fillcolor="#eeaf81"] ;
30 -> 32 ;
33 [label="Previous Scores <= 43.5\ngini = 0.26\nsamples = 13\nvalue = [11, 2, 0, 0, 0]\nclass = very low (0)", fillcolor="#ea985d"] ;
32 -> 33 ;
34 [label="gini = 0.0\nsamples = 6\nvalue = [6, 0, 0, 0, 0]\nclass = very low (0)", fillcolor="#e58139"] ;
33 -> 34 ;
35 [label="Sleep Hours <= 8.5\ngini = 0.408\nsamples = 7\nvalue = [5, 2, 0, 0, 0]\nclass = very low (0)", fillcolor="#efb388"] ;
33 -> 35 ;
36 [label="Extracurricular Activities <= 0.5\ngini = 0.48\nsamples = 5\nvalue = [3, 2, 0, 0, 0]\nclass = very low (0)", fillcolor="#f6d5bd"] ;
35 -> 36 ;
37 [label="Sleep Hours <= 6.0\ngini = 0.375\nsamples = 4\nvalue = [3, 1, 0, 0, 0]\nclass = very low (0)", fillcolor="#eeab7b"] ;
36 -> 37 ;
38 [label="gini = 0.0\nsamples = 1\nvalue = [1, 0, 0, 0, 0]\nclass = very low (0)", fillcolor="#e58139"] ;
37 -> 38 ;
39 [label="Sample Question Papers Practiced <= 7.0\ngini = 0.444\nsamples = 3\nvalue = [2, 1, 0, 0, 0]\nclass = very low (0)", fillcolor="#f2c09c"] ;
37 -> 39 ;
40 [label="gini = 0.0\nsamples = 1\nvalue = [1, 0, 0, 0, 0]\nclass = very low (0)", fillcolor="#e58139"] ;
39 -> 40 ;
41 [label="gini = 0.5\nsamples = 2\nvalue = [1, 1, 0, 0, 0]\nclass = very low (0)", fillcolor="#ffffff"] ;
39 -> 41 ;
42 [label="gini = 0.0\nsamples = 1\nvalue = [0, 1, 0, 0, 0]\nclass = low (1)", fillcolor="#7be539"] ;
36 -> 42 ;
43 [label="gini = 0.0\nsamples = 2\nvalue = [2, 0, 0, 0, 0]\nclass = very low (0)", fillcolor="#e58139"] ;
35 -> 43 ;
44 [label="gini = 0.0\nsamples = 2\nvalue = [0, 2, 0, 0, 0]\nclass = low (1)", fillcolor="#7be539"] ;
32 -> 44 ;
45 [label="Sample Question Papers Practiced <= 7.5\ngini = 0.496\nsamples = 44\nvalue = [24, 20, 0, 0, 0]\nclass = very low (0)", fillcolor="#fbeade"] ;
29 -> 45 ;
46 [label="Sleep Hours <= 7.5\ngini = 0.444\nsamples = 33\nvalue = [22, 11, 0, 0, 0]\nclass = very low (0)", fillcolor="#f2c09c"] ;
45 -> 46 ;
47 [label="Previous Scores <= 44.5\ngini = 0.384\nsamples = 27\nvalue = [20, 7, 0, 0, 0]\nclass = very low (0)", fillcolor="#eead7e"] ;
46 -> 47 ;
48 [label="Previous Scores <= 43.5\ngini = 0.117\nsamples = 16\nvalue = [15, 1, 0, 0, 0]\nclass = very low (0)", fillcolor="#e78946"] ;
47 -> 48 ;
49 [label="Sleep Hours <= 5.5\ngini = 0.278\nsamples = 6\nvalue = [5, 1, 0, 0, 0]\nclass = very low (0)", fillcolor="#ea9a61"] ;
48 -> 49 ;
50 [label="Sleep Hours <= 4.5\ngini = 0.444\nsamples = 3\nvalue = [2, 1, 0, 0, 0]\nclass = very low (0)", fillcolor="#f2c09c"] ;
49 -> 50 ;
51 [label="gini = 0.0\nsamples = 2\nvalue = [2, 0, 0, 0, 0]\nclass = very low (0)", fillcolor="#e58139"] ;
50 -> 51 ;
52 [label="gini = 0.0\nsamples = 1\nvalue = [0, 1, 0, 0, 0]\nclass = low (1)", fillcolor="#7be539"] ;
50 -> 52 ;
53 [label="gini = 0.0\nsamples = 3\nvalue = [3, 0, 0, 0, 0]\nclass = very low (0)", fillcolor="#e58139"] ;
49 -> 53 ;
54 [label="gini = 0.0\nsamples = 10\nvalue = [10, 0, 0, 0, 0]\nclass = very low (0)", fillcolor="#e58139"] ;
48 -> 54 ;
55 [label="Sample Question Papers Practiced <= 2.5\ngini = 0.496\nsamples = 11\nvalue = [5, 6, 0, 0, 0]\nclass = low (1)", fillcolor="#e9fbde"] ;
47 -> 55 ;
56 [label="Sample Question Papers Practiced <= 0.5\ngini = 0.32\nsamples = 5\nvalue = [4, 1, 0, 0, 0]\nclass = very low (0)", fillcolor="#eca06a"] ;
55 -> 56 ;
57 [label="Extracurricular Activities <= 0.5\ngini = 0.444\nsamples = 3\nvalue = [2, 1, 0, 0, 0]\nclass = very low (0)", fillcolor="#f2c09c"] ;
56 -> 57 ;
58 [label="gini = 0.0\nsamples = 1\nvalue = [1, 0, 0, 0, 0]\nclass = very low (0)", fillcolor="#e58139"] ;
57 -> 58 ;
59 [label="Sleep Hours <= 5.5\ngini = 0.5\nsamples = 2\nvalue = [1, 1, 0, 0, 0]\nclass = very low (0)", fillcolor="#ffffff"] ;
57 -> 59 ;
60 [label="gini = 0.0\nsamples = 1\nvalue = [0, 1, 0, 0, 0]\nclass = low (1)", fillcolor="#7be539"] ;
59 -> 60 ;
61 [label="gini = 0.0\nsamples = 1\nvalue = [1, 0, 0, 0, 0]\nclass = very low (0)", fillcolor="#e58139"] ;
59 -> 61 ;
62 [label="gini = 0.0\nsamples = 2\nvalue = [2, 0, 0, 0, 0]\nclass = very low (0)", fillcolor="#e58139"] ;
56 -> 62 ;
63 [label="Sample Question Papers Practiced <= 3.5\ngini = 0.278\nsamples = 6\nvalue = [1, 5, 0, 0, 0]\nclass = low (1)", fillcolor="#95ea61"] ;
55 -> 63 ;
64 [label="Sleep Hours <= 5.0\ngini = 0.444\nsamples = 3\nvalue = [1, 2, 0, 0, 0]\nclass = low (1)", fillcolor="#bdf29c"] ;
63 -> 64 ;
65 [label="gini = 0.0\nsamples = 1\nvalue = [1, 0, 0, 0, 0]\nclass = very low (0)", fillcolor="#e58139"] ;
64 -> 65 ;
66 [label="gini = 0.0\nsamples = 2\nvalue = [0, 2, 0, 0, 0]\nclass = low (1)", fillcolor="#7be539"] ;
64 -> 66 ;
67 [label="gini = 0.0\nsamples = 3\nvalue = [0, 3, 0, 0, 0]\nclass = low (1)", fillcolor="#7be539"] ;
63 -> 67 ;
68 [label="Sample Question Papers Practiced <= 3.0\ngini = 0.444\nsamples = 6\nvalue = [2, 4, 0, 0, 0]\nclass = low (1)", fillcolor="#bdf29c"] ;
46 -> 68 ;
69 [label="gini = 0.0\nsamples = 3\nvalue = [0, 3, 0, 0, 0]\nclass = low (1)", fillcolor="#7be539"] ;
68 -> 69 ;
70 [label="Extracurricular Activities <= 0.5\ngini = 0.444\nsamples = 3\nvalue = [2, 1, 0, 0, 0]\nclass = very low (0)", fillcolor="#f2c09c"] ;
68 -> 70 ;
71 [label="gini = 0.0\nsamples = 2\nvalue = [2, 0, 0, 0, 0]\nclass = very low (0)", fillcolor="#e58139"] ;
70 -> 71 ;
72 [label="gini = 0.0\nsamples = 1\nvalue = [0, 1, 0, 0, 0]\nclass = low (1)", fillcolor="#7be539"] ;
70 -> 72 ;
73 [label="Sample Question Papers Practiced <= 8.5\ngini = 0.298\nsamples = 11\nvalue = [2, 9, 0, 0, 0]\nclass = low (1)", fillcolor="#98eb65"] ;
45 -> 73 ;
74 [label="gini = 0.0\nsamples = 7\nvalue = [0, 7, 0, 0, 0]\nclass = low (1)", fillcolor="#7be539"] ;
73 -> 74 ;
75 [label="Previous Scores <= 43.5\ngini = 0.5\nsamples = 4\nvalue = [2, 2, 0, 0, 0]\nclass = very low (0)", fillcolor="#ffffff"] ;
73 -> 75 ;
76 [label="gini = 0.0\nsamples = 2\nvalue = [2, 0, 0, 0, 0]\nclass = very low (0)", fillcolor="#e58139"] ;
75 -> 76 ;
77 [label="gini = 0.0\nsamples = 2\nvalue = [0, 2, 0, 0, 0]\nclass = low (1)", fillcolor="#7be539"] ;
75 -> 77 ;
78 [label="Previous Scores <= 48.5\ngini = 0.216\nsamples = 284\nvalue = [35, 249, 0, 0, 0]\nclass = low (1)", fillcolor="#8ee955"] ;
4 -> 78 ;
79 [label="Hours Studied <= 1.5\ngini = 0.456\nsamples = 91\nvalue = [32, 59, 0, 0, 0]\nclass = low (1)", fillcolor="#c3f3a4"] ;
78 -> 79 ;
80 [label="Sample Question Papers Practiced <= 2.5\ngini = 0.495\nsamples = 49\nvalue = [27, 22, 0, 0, 0]\nclass = very low (0)", fillcolor="#fae8da"] ;
79 -> 80 ;
81 [label="Sample Question Papers Practiced <= 1.5\ngini = 0.36\nsamples = 17\nvalue = [13, 4, 0, 0, 0]\nclass = very low (0)", fillcolor="#eda876"] ;
80 -> 81 ;
82 [label="Previous Scores <= 47.5\ngini = 0.463\nsamples = 11\nvalue = [7, 4, 0, 0, 0]\nclass = very low (0)", fillcolor="#f4c9aa"] ;
81 -> 82 ;
83 [label="Sample Question Papers Practiced <= 0.5\ngini = 0.219\nsamples = 8\nvalue = [7, 1, 0, 0, 0]\nclass = very low (0)", fillcolor="#e99355"] ;
82 -> 83 ;
84 [label="gini = 0.0\nsamples = 6\nvalue = [6, 0, 0, 0, 0]\nclass = very low (0)", fillcolor="#e58139"] ;
83 -> 84 ;
85 [label="Previous Scores <= 46.5\ngini = 0.5\nsamples = 2\nvalue = [1, 1, 0, 0, 0]\nclass = very low (0)", fillcolor="#ffffff"] ;
83 -> 85 ;
86 [label="gini = 0.0\nsamples = 1\nvalue = [1, 0, 0, 0, 0]\nclass = very low (0)", fillcolor="#e58139"] ;
85 -> 86 ;
87 [label="gini = 0.0\nsamples = 1\nvalue = [0, 1, 0, 0, 0]\nclass = low (1)", fillcolor="#7be539"] ;
85 -> 87 ;
88 [label="gini = 0.0\nsamples = 3\nvalue = [0, 3, 0, 0, 0]\nclass = low (1)", fillcolor="#7be539"] ;
82 -> 88 ;
89 [label="gini = 0.0\nsamples = 6\nvalue = [6, 0, 0, 0, 0]\nclass = very low (0)", fillcolor="#e58139"] ;
81 -> 89 ;
90 [label="Sleep Hours <= 7.5\ngini = 0.492\nsamples = 32\nvalue = [14, 18, 0, 0, 0]\nclass = low (1)", fillcolor="#e2f9d3"] ;
80 -> 90 ;
91 [label="Sample Question Papers Practiced <= 7.5\ngini = 0.494\nsamples = 18\nvalue = [10, 8, 0, 0, 0]\nclass = very low (0)", fillcolor="#fae6d7"] ;
90 -> 91 ;
92 [label="Extracurricular Activities <= 0.5\ngini = 0.459\nsamples = 14\nvalue = [9, 5, 0, 0, 0]\nclass = very low (0)", fillcolor="#f3c7a7"] ;
91 -> 92 ;
93 [label="Sample Question Papers Practiced <= 5.5\ngini = 0.278\nsamples = 6\nvalue = [5, 1, 0, 0, 0]\nclass = very low (0)", fillcolor="#ea9a61"] ;
92 -> 93 ;
94 [label="Previous Scores <= 47.0\ngini = 0.5\nsamples = 2\nvalue = [1, 1, 0, 0, 0]\nclass = very low (0)", fillcolor="#ffffff"] ;
93 -> 94 ;
95 [label="gini = 0.0\nsamples = 1\nvalue = [0, 1, 0, 0, 0]\nclass = low (1)", fillcolor="#7be539"] ;
94 -> 95 ;
96 [label="gini = 0.0\nsamples = 1\nvalue = [1, 0, 0, 0, 0]\nclass = very low (0)", fillcolor="#e58139"] ;
94 -> 96 ;
97 [label="gini = 0.0\nsamples = 4\nvalue = [4, 0, 0, 0, 0]\nclass = very low (0)", fillcolor="#e58139"] ;
93 -> 97 ;
98 [label="Sample Question Papers Practiced <= 6.5\ngini = 0.5\nsamples = 8\nvalue = [4, 4, 0, 0, 0]\nclass = very low (0)", fillcolor="#ffffff"] ;
92 -> 98 ;
99 [label="Sleep Hours <= 4.5\ngini = 0.444\nsamples = 6\nvalue = [4, 2, 0, 0, 0]\nclass = very low (0)", fillcolor="#f2c09c"] ;
98 -> 99 ;
100 [label="gini = 0.0\nsamples = 1\nvalue = [0, 1, 0, 0, 0]\nclass = low (1)", fillcolor="#7be539"] ;
99 -> 100 ;
101 [label="Previous Scores <= 47.0\ngini = 0.32\nsamples = 5\nvalue = [4, 1, 0, 0, 0]\nclass = very low (0)", fillcolor="#eca06a"] ;
99 -> 101 ;
102 [label="gini = 0.0\nsamples = 3\nvalue = [3, 0, 0, 0, 0]\nclass = very low (0)", fillcolor="#e58139"] ;
101 -> 102 ;
103 [label="Sample Question Papers Practiced <= 3.5\ngini = 0.5\nsamples = 2\nvalue = [1, 1, 0, 0, 0]\nclass = very low (0)", fillcolor="#ffffff"] ;
101 -> 103 ;
104 [label="gini = 0.0\nsamples = 1\nvalue = [1, 0, 0, 0, 0]\nclass = very low (0)", fillcolor="#e58139"] ;
103 -> 104 ;
105 [label="gini = 0.0\nsamples = 1\nvalue = [0, 1, 0, 0, 0]\nclass = low (1)", fillcolor="#7be539"] ;
103 -> 105 ;
106 [label="gini = 0.0\nsamples = 2\nvalue = [0, 2, 0, 0, 0]\nclass = low (1)", fillcolor="#7be539"] ;
98 -> 106 ;
107 [label="Sleep Hours <= 6.5\ngini = 0.375\nsamples = 4\nvalue = [1, 3, 0, 0, 0]\nclass = low (1)", fillcolor="#a7ee7b"] ;
91 -> 107 ;
108 [label="gini = 0.0\nsamples = 3\nvalue = [0, 3, 0, 0, 0]\nclass = low (1)", fillcolor="#7be539"] ;
107 -> 108 ;
109 [label="gini = 0.0\nsamples = 1\nvalue = [1, 0, 0, 0, 0]\nclass = very low (0)", fillcolor="#e58139"] ;
107 -> 109 ;
110 [label="Sample Question Papers Practiced <= 6.0\ngini = 0.408\nsamples = 14\nvalue = [4, 10, 0, 0, 0]\nclass = low (1)", fillcolor="#b0ef88"] ;
90 -> 110 ;
111 [label="gini = 0.0\nsamples = 6\nvalue = [0, 6, 0, 0, 0]\nclass = low (1)", fillcolor="#7be539"] ;
110 -> 111 ;
112 [label="Extracurricular Activities <= 0.5\ngini = 0.5\nsamples = 8\nvalue = [4, 4, 0, 0, 0]\nclass = very low (0)", fillcolor="#ffffff"] ;
110 -> 112 ;
113 [label="Sample Question Papers Practiced <= 7.5\ngini = 0.444\nsamples = 6\nvalue = [4, 2, 0, 0, 0]\nclass = very low (0)", fillcolor="#f2c09c"] ;
112 -> 113 ;
114 [label="gini = 0.0\nsamples = 2\nvalue = [2, 0, 0, 0, 0]\nclass = very low (0)", fillcolor="#e58139"] ;
113 -> 114 ;
115 [label="Sleep Hours <= 8.5\ngini = 0.5\nsamples = 4\nvalue = [2, 2, 0, 0, 0]\nclass = very low (0)", fillcolor="#ffffff"] ;
113 -> 115 ;
116 [label="Sample Question Papers Practiced <= 8.5\ngini = 0.5\nsamples = 2\nvalue = [1, 1, 0, 0, 0]\nclass = very low (0)", fillcolor="#ffffff"] ;
115 -> 116 ;
117 [label="gini = 0.0\nsamples = 1\nvalue = [0, 1, 0, 0, 0]\nclass = low (1)", fillcolor="#7be539"] ;
116 -> 117 ;
118 [label="gini = 0.0\nsamples = 1\nvalue = [1, 0, 0, 0, 0]\nclass = very low (0)", fillcolor="#e58139"] ;
116 -> 118 ;
119 [label="Sample Question Papers Practiced <= 8.5\ngini = 0.5\nsamples = 2\nvalue = [1, 1, 0, 0, 0]\nclass = very low (0)", fillcolor="#ffffff"] ;
115 -> 119 ;
120 [label="gini = 0.0\nsamples = 1\nvalue = [1, 0, 0, 0, 0]\nclass = very low (0)", fillcolor="#e58139"] ;
119 -> 120 ;
121 [label="gini = 0.0\nsamples = 1\nvalue = [0, 1, 0, 0, 0]\nclass = low (1)", fillcolor="#7be539"] ;
119 -> 121 ;
122 [label="gini = 0.0\nsamples = 2\nvalue = [0, 2, 0, 0, 0]\nclass = low (1)", fillcolor="#7be539"] ;
112 -> 122 ;
123 [label="Sleep Hours <= 4.5\ngini = 0.21\nsamples = 42\nvalue = [5, 37, 0, 0, 0]\nclass = low (1)", fillcolor="#8de954"] ;
79 -> 123 ;
124 [label="Sample Question Papers Practiced <= 1.5\ngini = 0.469\nsamples = 8\nvalue = [5, 3, 0, 0, 0]\nclass = very low (0)", fillcolor="#f5cdb0"] ;
123 -> 124 ;
125 [label="gini = 0.0\nsamples = 2\nvalue = [2, 0, 0, 0, 0]\nclass = very low (0)", fillcolor="#e58139"] ;
124 -> 125 ;
126 [label="Sample Question Papers Practiced <= 4.5\ngini = 0.5\nsamples = 6\nvalue = [3, 3, 0, 0, 0]\nclass = very low (0)", fillcolor="#ffffff"] ;
124 -> 126 ;
127 [label="gini = 0.0\nsamples = 2\nvalue = [0, 2, 0, 0, 0]\nclass = low (1)", fillcolor="#7be539"] ;
126 -> 127 ;
128 [label="Sample Question Papers Practiced <= 7.5\ngini = 0.375\nsamples = 4\nvalue = [3, 1, 0, 0, 0]\nclass = very low (0)", fillcolor="#eeab7b"] ;
126 -> 128 ;
129 [label="Sample Question Papers Practiced <= 6.5\ngini = 0.5\nsamples = 2\nvalue = [1, 1, 0, 0, 0]\nclass = very low (0)", fillcolor="#ffffff"] ;
128 -> 129 ;
130 [label="gini = 0.0\nsamples = 1\nvalue = [1, 0, 0, 0, 0]\nclass = very low (0)", fillcolor="#e58139"] ;
129 -> 130 ;
131 [label="gini = 0.0\nsamples = 1\nvalue = [0, 1, 0, 0, 0]\nclass = low (1)", fillcolor="#7be539"] ;
129 -> 131 ;
132 [label="gini = 0.0\nsamples = 2\nvalue = [2, 0, 0, 0, 0]\nclass = very low (0)", fillcolor="#e58139"] ;
128 -> 132 ;
133 [label="gini = 0.0\nsamples = 34\nvalue = [0, 34, 0, 0, 0]\nclass = low (1)", fillcolor="#7be539"] ;
123 -> 133 ;
134 [label="Sleep Hours <= 4.5\ngini = 0.031\nsamples = 193\nvalue = [3, 190, 0, 0, 0]\nclass = low (1)", fillcolor="#7de53c"] ;
78 -> 134 ;
135 [label="Sample Question Papers Practiced <= 0.5\ngini = 0.185\nsamples = 29\nvalue = [3, 26, 0, 0, 0]\nclass = low (1)", fillcolor="#8ae850"] ;
134 -> 135 ;
136 [label="gini = 0.0\nsamples = 1\nvalue = [1, 0, 0, 0, 0]\nclass = very low (0)", fillcolor="#e58139"] ;
135 -> 136 ;
137 [label="Previous Scores <= 50.5\ngini = 0.133\nsamples = 28\nvalue = [2, 26, 0, 0, 0]\nclass = low (1)", fillcolor="#85e748"] ;
135 -> 137 ;
138 [label="Extracurricular Activities <= 0.5\ngini = 0.32\nsamples = 10\nvalue = [2, 8, 0, 0, 0]\nclass = low (1)", fillcolor="#9cec6a"] ;
137 -> 138 ;
139 [label="gini = 0.0\nsamples = 4\nvalue = [0, 4, 0, 0, 0]\nclass = low (1)", fillcolor="#7be539"] ;
138 -> 139 ;
140 [label="Hours Studied <= 1.5\ngini = 0.444\nsamples = 6\nvalue = [2, 4, 0, 0, 0]\nclass = low (1)", fillcolor="#bdf29c"] ;
138 -> 140 ;
141 [label="Sample Question Papers Practiced <= 4.5\ngini = 0.48\nsamples = 5\nvalue = [2, 3, 0, 0, 0]\nclass = low (1)", fillcolor="#d3f6bd"] ;
140 -> 141 ;
142 [label="Sample Question Papers Practiced <= 3.0\ngini = 0.5\nsamples = 4\nvalue = [2, 2, 0, 0, 0]\nclass = very low (0)", fillcolor="#ffffff"] ;
141 -> 142 ;
143 [label="Sample Question Papers Practiced <= 1.5\ngini = 0.444\nsamples = 3\nvalue = [1, 2, 0, 0, 0]\nclass = low (1)", fillcolor="#bdf29c"] ;
142 -> 143 ;
144 [label="gini = 0.5\nsamples = 2\nvalue = [1, 1, 0, 0, 0]\nclass = very low (0)", fillcolor="#ffffff"] ;
143 -> 144 ;
145 [label="gini = 0.0\nsamples = 1\nvalue = [0, 1, 0, 0, 0]\nclass = low (1)", fillcolor="#7be539"] ;
143 -> 145 ;
146 [label="gini = 0.0\nsamples = 1\nvalue = [1, 0, 0, 0, 0]\nclass = very low (0)", fillcolor="#e58139"] ;
142 -> 146 ;
147 [label="gini = 0.0\nsamples = 1\nvalue = [0, 1, 0, 0, 0]\nclass = low (1)", fillcolor="#7be539"] ;
141 -> 147 ;
148 [label="gini = 0.0\nsamples = 1\nvalue = [0, 1, 0, 0, 0]\nclass = low (1)", fillcolor="#7be539"] ;
140 -> 148 ;
149 [label="gini = 0.0\nsamples = 18\nvalue = [0, 18, 0, 0, 0]\nclass = low (1)", fillcolor="#7be539"] ;
137 -> 149 ;
150 [label="gini = 0.0\nsamples = 164\nvalue = [0, 164, 0, 0, 0]\nclass = low (1)", fillcolor="#7be539"] ;
134 -> 150 ;
151 [label="Previous Scores <= 52.5\ngini = 0.268\nsamples = 1084\nvalue = [40, 918, 126, 0, 0]\nclass = low (1)", fillcolor="#92ea5b"] ;
3 -> 151 ;
152 [label="Hours Studied <= 6.5\ngini = 0.188\nsamples = 911\nvalue = [40, 818, 53, 0, 0]\nclass = low (1)", fillcolor="#89e84e"] ;
151 -> 152 ;
153 [label="Previous Scores <= 41.5\ngini = 0.131\nsamples = 706\nvalue = [40, 657, 9, 0, 0]\nclass = low (1)", fillcolor="#85e748"] ;
152 -> 153 ;
154 [label="Hours Studied <= 3.5\ngini = 0.398\nsamples = 113\nvalue = [31, 82, 0, 0, 0]\nclass = low (1)", fillcolor="#adef84"] ;
153 -> 154 ;
155 [label="Sleep Hours <= 6.5\ngini = 0.388\nsamples = 38\nvalue = [28, 10, 0, 0, 0]\nclass = very low (0)", fillcolor="#eeae80"] ;
154 -> 155 ;
156 [label="gini = 0.0\nsamples = 16\nvalue = [16, 0, 0, 0, 0]\nclass = very low (0)", fillcolor="#e58139"] ;
155 -> 156 ;
157 [label="Previous Scores <= 40.5\ngini = 0.496\nsamples = 22\nvalue = [12, 10, 0, 0, 0]\nclass = very low (0)", fillcolor="#fbeade"] ;
155 -> 157 ;
158 [label="Sleep Hours <= 7.5\ngini = 0.298\nsamples = 11\nvalue = [9, 2, 0, 0, 0]\nclass = very low (0)", fillcolor="#eb9d65"] ;
157 -> 158 ;
159 [label="Sample Question Papers Practiced <= 4.5\ngini = 0.5\nsamples = 4\nvalue = [2, 2, 0, 0, 0]\nclass = very low (0)", fillcolor="#ffffff"] ;
158 -> 159 ;
160 [label="gini = 0.0\nsamples = 1\nvalue = [1, 0, 0, 0, 0]\nclass = very low (0)", fillcolor="#e58139"] ;
159 -> 160 ;
161 [label="Sample Question Papers Practiced <= 6.5\ngini = 0.444\nsamples = 3\nvalue = [1, 2, 0, 0, 0]\nclass = low (1)", fillcolor="#bdf29c"] ;
159 -> 161 ;
162 [label="gini = 0.5\nsamples = 2\nvalue = [1, 1, 0, 0, 0]\nclass = very low (0)", fillcolor="#ffffff"] ;
161 -> 162 ;
163 [label="gini = 0.0\nsamples = 1\nvalue = [0, 1, 0, 0, 0]\nclass = low (1)", fillcolor="#7be539"] ;
161 -> 163 ;
164 [label="gini = 0.0\nsamples = 7\nvalue = [7, 0, 0, 0, 0]\nclass = very low (0)", fillcolor="#e58139"] ;
158 -> 164 ;
165 [label="Sleep Hours <= 8.5\ngini = 0.397\nsamples = 11\nvalue = [3, 8, 0, 0, 0]\nclass = low (1)", fillcolor="#acef83"] ;
157 -> 165 ;
166 [label="Sleep Hours <= 7.5\ngini = 0.5\nsamples = 6\nvalue = [3, 3, 0, 0, 0]\nclass = very low (0)", fillcolor="#ffffff"] ;
165 -> 166 ;
167 [label="gini = 0.0\nsamples = 2\nvalue = [0, 2, 0, 0, 0]\nclass = low (1)", fillcolor="#7be539"] ;
166 -> 167 ;
168 [label="Sample Question Papers Practiced <= 8.5\ngini = 0.375\nsamples = 4\nvalue = [3, 1, 0, 0, 0]\nclass = very low (0)", fillcolor="#eeab7b"] ;
166 -> 168 ;
169 [label="gini = 0.0\nsamples = 3\nvalue = [3, 0, 0, 0, 0]\nclass = very low (0)", fillcolor="#e58139"] ;
168 -> 169 ;
170 [label="gini = 0.0\nsamples = 1\nvalue = [0, 1, 0, 0, 0]\nclass = low (1)", fillcolor="#7be539"] ;
168 -> 170 ;
171 [label="gini = 0.0\nsamples = 5\nvalue = [0, 5, 0, 0, 0]\nclass = low (1)", fillcolor="#7be539"] ;
165 -> 171 ;
172 [label="Hours Studied <= 4.5\ngini = 0.077\nsamples = 75\nvalue = [3, 72, 0, 0, 0]\nclass = low (1)", fillcolor="#80e641"] ;
154 -> 172 ;
173 [label="Sleep Hours <= 6.5\ngini = 0.198\nsamples = 27\nvalue = [3, 24, 0, 0, 0]\nclass = low (1)", fillcolor="#8ce852"] ;
172 -> 173 ;
174 [label="Sample Question Papers Practiced <= 6.5\ngini = 0.355\nsamples = 13\nvalue = [3, 10, 0, 0, 0]\nclass = low (1)", fillcolor="#a3ed74"] ;
173 -> 174 ;
175 [label="Sample Question Papers Practiced <= 1.5\ngini = 0.469\nsamples = 8\nvalue = [3, 5, 0, 0, 0]\nclass = low (1)", fillcolor="#caf5b0"] ;
174 -> 175 ;
176 [label="gini = 0.0\nsamples = 4\nvalue = [0, 4, 0, 0, 0]\nclass = low (1)", fillcolor="#7be539"] ;
175 -> 176 ;
177 [label="Extracurricular Activities <= 0.5\ngini = 0.375\nsamples = 4\nvalue = [3, 1, 0, 0, 0]\nclass = very low (0)", fillcolor="#eeab7b"] ;
175 -> 177 ;
178 [label="gini = 0.0\nsamples = 2\nvalue = [2, 0, 0, 0, 0]\nclass = very low (0)", fillcolor="#e58139"] ;
177 -> 178 ;
179 [label="Sample Question Papers Practiced <= 5.5\ngini = 0.5\nsamples = 2\nvalue = [1, 1, 0, 0, 0]\nclass = very low (0)", fillcolor="#ffffff"] ;
177 -> 179 ;
180 [label="gini = 0.0\nsamples = 1\nvalue = [0, 1, 0, 0, 0]\nclass = low (1)", fillcolor="#7be539"] ;
179 -> 180 ;
181 [label="gini = 0.0\nsamples = 1\nvalue = [1, 0, 0, 0, 0]\nclass = very low (0)", fillcolor="#e58139"] ;
179 -> 181 ;
182 [label="gini = 0.0\nsamples = 5\nvalue = [0, 5, 0, 0, 0]\nclass = low (1)", fillcolor="#7be539"] ;
174 -> 182 ;
183 [label="gini = 0.0\nsamples = 14\nvalue = [0, 14, 0, 0, 0]\nclass = low (1)", fillcolor="#7be539"] ;
173 -> 183 ;
184 [label="gini = 0.0\nsamples = 48\nvalue = [0, 48, 0, 0, 0]\nclass = low (1)", fillcolor="#7be539"] ;
172 -> 184 ;
185 [label="Previous Scores <= 51.5\ngini = 0.059\nsamples = 593\nvalue = [9, 575, 9, 0, 0]\nclass = low (1)", fillcolor="#7fe63f"] ;
153 -> 185 ;
186 [label="Previous Scores <= 44.5\ngini = 0.044\nsamples = 535\nvalue = [9, 523, 3, 0, 0]\nclass = low (1)", fillcolor="#7ee63e"] ;
185 -> 186 ;
187 [label="Hours Studied <= 3.5\ngini = 0.102\nsamples = 167\nvalue = [9, 158, 0, 0, 0]\nclass = low (1)", fillcolor="#83e644"] ;
186 -> 187 ;
188 [label="Sample Question Papers Practiced <= 3.5\ngini = 0.32\nsamples = 35\nvalue = [7, 28, 0, 0, 0]\nclass = low (1)", fillcolor="#9cec6a"] ;
187 -> 188 ;
189 [label="Sleep Hours <= 6.5\ngini = 0.48\nsamples = 15\nvalue = [6, 9, 0, 0, 0]\nclass = low (1)", fillcolor="#d3f6bd"] ;
188 -> 189 ;
190 [label="Previous Scores <= 42.5\ngini = 0.496\nsamples = 11\nvalue = [6, 5, 0, 0, 0]\nclass = very low (0)", fillcolor="#fbeade"] ;
189 -> 190 ;
191 [label="gini = 0.0\nsamples = 2\nvalue = [0, 2, 0, 0, 0]\nclass = low (1)", fillcolor="#7be539"] ;
190 -> 191 ;
192 [label="Previous Scores <= 43.5\ngini = 0.444\nsamples = 9\nvalue = [6, 3, 0, 0, 0]\nclass = very low (0)", fillcolor="#f2c09c"] ;
190 -> 192 ;
193 [label="Extracurricular Activities <= 0.5\ngini = 0.32\nsamples = 5\nvalue = [4, 1, 0, 0, 0]\nclass = very low (0)", fillcolor="#eca06a"] ;
192 -> 193 ;
194 [label="gini = 0.0\nsamples = 2\nvalue = [2, 0, 0, 0, 0]\nclass = very low (0)", fillcolor="#e58139"] ;
193 -> 194 ;
195 [label="Sleep Hours <= 5.0\ngini = 0.444\nsamples = 3\nvalue = [2, 1, 0, 0, 0]\nclass = very low (0)", fillcolor="#f2c09c"] ;
193 -> 195 ;
196 [label="gini = 0.0\nsamples = 1\nvalue = [1, 0, 0, 0, 0]\nclass = very low (0)", fillcolor="#e58139"] ;
195 -> 196 ;
197 [label="gini = 0.5\nsamples = 2\nvalue = [1, 1, 0, 0, 0]\nclass = very low (0)", fillcolor="#ffffff"] ;
195 -> 197 ;
198 [label="Sample Question Papers Practiced <= 0.5\ngini = 0.5\nsamples = 4\nvalue = [2, 2, 0, 0, 0]\nclass = very low (0)", fillcolor="#ffffff"] ;
192 -> 198 ;
199 [label="gini = 0.0\nsamples = 1\nvalue = [0, 1, 0, 0, 0]\nclass = low (1)", fillcolor="#7be539"] ;
198 -> 199 ;
200 [label="Sleep Hours <= 5.5\ngini = 0.444\nsamples = 3\nvalue = [2, 1, 0, 0, 0]\nclass = very low (0)", fillcolor="#f2c09c"] ;
198 -> 200 ;
201 [label="gini = 0.0\nsamples = 1\nvalue = [1, 0, 0, 0, 0]\nclass = very low (0)", fillcolor="#e58139"] ;
200 -> 201 ;
202 [label="Sample Question Papers Practiced <= 2.5\ngini = 0.5\nsamples = 2\nvalue = [1, 1, 0, 0, 0]\nclass = very low (0)", fillcolor="#ffffff"] ;
200 -> 202 ;
203 [label="gini = 0.0\nsamples = 1\nvalue = [0, 1, 0, 0, 0]\nclass = low (1)", fillcolor="#7be539"] ;
202 -> 203 ;
204 [label="gini = 0.0\nsamples = 1\nvalue = [1, 0, 0, 0, 0]\nclass = very low (0)", fillcolor="#e58139"] ;
202 -> 204 ;
205 [label="gini = 0.0\nsamples = 4\nvalue = [0, 4, 0, 0, 0]\nclass = low (1)", fillcolor="#7be539"] ;
189 -> 205 ;
206 [label="Sleep Hours <= 4.5\ngini = 0.095\nsamples = 20\nvalue = [1, 19, 0, 0, 0]\nclass = low (1)", fillcolor="#82e643"] ;
188 -> 206 ;
207 [label="Sample Question Papers Practiced <= 7.0\ngini = 0.5\nsamples = 2\nvalue = [1, 1, 0, 0, 0]\nclass = very low (0)", fillcolor="#ffffff"] ;
206 -> 207 ;
208 [label="gini = 0.0\nsamples = 1\nvalue = [1, 0, 0, 0, 0]\nclass = very low (0)", fillcolor="#e58139"] ;
207 -> 208 ;
209 [label="gini = 0.0\nsamples = 1\nvalue = [0, 1, 0, 0, 0]\nclass = low (1)", fillcolor="#7be539"] ;
207 -> 209 ;
210 [label="gini = 0.0\nsamples = 18\nvalue = [0, 18, 0, 0, 0]\nclass = low (1)", fillcolor="#7be539"] ;
206 -> 210 ;
211 [label="Sleep Hours <= 5.5\ngini = 0.03\nsamples = 132\nvalue = [2, 130, 0, 0, 0]\nclass = low (1)", fillcolor="#7de53c"] ;
187 -> 211 ;
212 [label="Hours Studied <= 4.5\ngini = 0.128\nsamples = 29\nvalue = [2, 27, 0, 0, 0]\nclass = low (1)", fillcolor="#85e748"] ;
211 -> 212 ;
213 [label="Sample Question Papers Practiced <= 3.5\ngini = 0.32\nsamples = 10\nvalue = [2, 8, 0, 0, 0]\nclass = low (1)", fillcolor="#9cec6a"] ;
212 -> 213 ;
214 [label="Previous Scores <= 42.5\ngini = 0.48\nsamples = 5\nvalue = [2, 3, 0, 0, 0]\nclass = low (1)", fillcolor="#d3f6bd"] ;
213 -> 214 ;
215 [label="gini = 0.0\nsamples = 1\nvalue = [1, 0, 0, 0, 0]\nclass = very low (0)", fillcolor="#e58139"] ;
214 -> 215 ;
216 [label="Extracurricular Activities <= 0.5\ngini = 0.375\nsamples = 4\nvalue = [1, 3, 0, 0, 0]\nclass = low (1)", fillcolor="#a7ee7b"] ;
214 -> 216 ;
217 [label="gini = 0.0\nsamples = 3\nvalue = [0, 3, 0, 0, 0]\nclass = low (1)", fillcolor="#7be539"] ;
216 -> 217 ;
218 [label="gini = 0.0\nsamples = 1\nvalue = [1, 0, 0, 0, 0]\nclass = very low (0)", fillcolor="#e58139"] ;
216 -> 218 ;
219 [label="gini = 0.0\nsamples = 5\nvalue = [0, 5, 0, 0, 0]\nclass = low (1)", fillcolor="#7be539"] ;
213 -> 219 ;
220 [label="gini = 0.0\nsamples = 19\nvalue = [0, 19, 0, 0, 0]\nclass = low (1)", fillcolor="#7be539"] ;
212 -> 220 ;
221 [label="gini = 0.0\nsamples = 103\nvalue = [0, 103, 0, 0, 0]\nclass = low (1)", fillcolor="#7be539"] ;
211 -> 221 ;
222 [label="Previous Scores <= 49.5\ngini = 0.016\nsamples = 368\nvalue = [0, 365, 3, 0, 0]\nclass = low (1)", fillcolor="#7ce53b"] ;
186 -> 222 ;
223 [label="gini = 0.0\nsamples = 277\nvalue = [0, 277, 0, 0, 0]\nclass = low (1)", fillcolor="#7be539"] ;
222 -> 223 ;
224 [label="Hours Studied <= 5.5\ngini = 0.064\nsamples = 91\nvalue = [0, 88, 3, 0, 0]\nclass = low (1)", fillcolor="#80e640"] ;
222 -> 224 ;
225 [label="Sample Question Papers Practiced <= 7.5\ngini = 0.026\nsamples = 76\nvalue = [0, 75, 1, 0, 0]\nclass = low (1)", fillcolor="#7de53c"] ;
224 -> 225 ;
226 [label="gini = 0.0\nsamples = 65\nvalue = [0, 65, 0, 0, 0]\nclass = low (1)", fillcolor="#7be539"] ;
225 -> 226 ;
227 [label="Sleep Hours <= 8.5\ngini = 0.165\nsamples = 11\nvalue = [0, 10, 1, 0, 0]\nclass = low (1)", fillcolor="#88e84d"] ;
225 -> 227 ;
228 [label="gini = 0.0\nsamples = 8\nvalue = [0, 8, 0, 0, 0]\nclass = low (1)", fillcolor="#7be539"] ;
227 -> 228 ;
229 [label="Hours Studied <= 4.5\ngini = 0.444\nsamples = 3\nvalue = [0, 2, 1, 0, 0]\nclass = low (1)", fillcolor="#bdf29c"] ;
227 -> 229 ;
230 [label="gini = 0.0\nsamples = 2\nvalue = [0, 2, 0, 0, 0]\nclass = low (1)", fillcolor="#7be539"] ;
229 -> 230 ;
231 [label="gini = 0.0\nsamples = 1\nvalue = [0, 0, 1, 0, 0]\nclass = good (2)", fillcolor="#39e5c5"] ;
229 -> 231 ;
232 [label="Sleep Hours <= 8.0\ngini = 0.231\nsamples = 15\nvalue = [0, 13, 2, 0, 0]\nclass = low (1)", fillcolor="#8fe957"] ;
224 -> 232 ;
233 [label="Sample Question Papers Practiced <= 1.5\ngini = 0.142\nsamples = 13\nvalue = [0, 12, 1, 0, 0]\nclass = low (1)", fillcolor="#86e749"] ;
232 -> 233 ;
234 [label="Previous Scores <= 50.5\ngini = 0.444\nsamples = 3\nvalue = [0, 2, 1, 0, 0]\nclass = low (1)", fillcolor="#bdf29c"] ;
233 -> 234 ;
235 [label="gini = 0.0\nsamples = 1\nvalue = [0, 0, 1, 0, 0]\nclass = good (2)", fillcolor="#39e5c5"] ;
234 -> 235 ;
236 [label="gini = 0.0\nsamples = 2\nvalue = [0, 2, 0, 0, 0]\nclass = low (1)", fillcolor="#7be539"] ;
234 -> 236 ;
237 [label="gini = 0.0\nsamples = 10\nvalue = [0, 10, 0, 0, 0]\nclass = low (1)", fillcolor="#7be539"] ;
233 -> 237 ;
238 [label="Sample Question Papers Practiced <= 2.0\ngini = 0.5\nsamples = 2\nvalue = [0, 1, 1, 0, 0]\nclass = low (1)", fillcolor="#ffffff"] ;
232 -> 238 ;
239 [label="gini = 0.0\nsamples = 1\nvalue = [0, 1, 0, 0, 0]\nclass = low (1)", fillcolor="#7be539"] ;
238 -> 239 ;
240 [label="gini = 0.0\nsamples = 1\nvalue = [0, 0, 1, 0, 0]\nclass = good (2)", fillcolor="#39e5c5"] ;
238 -> 240 ;
241 [label="Hours Studied <= 5.5\ngini = 0.185\nsamples = 58\nvalue = [0, 52, 6, 0, 0]\nclass = low (1)", fillcolor="#8ae850"] ;
185 -> 241 ;
242 [label="gini = 0.0\nsamples = 46\nvalue = [0, 46, 0, 0, 0]\nclass = low (1)", fillcolor="#7be539"] ;
241 -> 242 ;
243 [label="Sample Question Papers Practiced <= 4.5\ngini = 0.5\nsamples = 12\nvalue = [0, 6, 6, 0, 0]\nclass = low (1)", fillcolor="#ffffff"] ;
241 -> 243 ;
244 [label="Sleep Hours <= 7.5\ngini = 0.245\nsamples = 7\nvalue = [0, 6, 1, 0, 0]\nclass = low (1)", fillcolor="#91e95a"] ;
243 -> 244 ;
245 [label="gini = 0.0\nsamples = 5\nvalue = [0, 5, 0, 0, 0]\nclass = low (1)", fillcolor="#7be539"] ;
244 -> 245 ;
246 [label="Sleep Hours <= 8.5\ngini = 0.5\nsamples = 2\nvalue = [0, 1, 1, 0, 0]\nclass = low (1)", fillcolor="#ffffff"] ;
244 -> 246 ;
247 [label="gini = 0.0\nsamples = 1\nvalue = [0, 0, 1, 0, 0]\nclass = good (2)", fillcolor="#39e5c5"] ;
246 -> 247 ;
248 [label="gini = 0.0\nsamples = 1\nvalue = [0, 1, 0, 0, 0]\nclass = low (1)", fillcolor="#7be539"] ;
246 -> 248 ;
249 [label="gini = 0.0\nsamples = 5\nvalue = [0, 0, 5, 0, 0]\nclass = good (2)", fillcolor="#39e5c5"] ;
243 -> 249 ;
250 [label="Previous Scores <= 49.5\ngini = 0.337\nsamples = 205\nvalue = [0, 161, 44, 0, 0]\nclass = low (1)", fillcolor="#9fec6f"] ;
152 -> 250 ;
251 [label="Previous Scores <= 46.5\ngini = 0.169\nsamples = 172\nvalue = [0, 156, 16, 0, 0]\nclass = low (1)", fillcolor="#89e84d"] ;
250 -> 251 ;
252 [label="Sleep Hours <= 8.5\ngini = 0.034\nsamples = 114\nvalue = [0, 112, 2, 0, 0]\nclass = low (1)", fillcolor="#7de53d"] ;
251 -> 252 ;
253 [label="gini = 0.0\nsamples = 96\nvalue = [0, 96, 0, 0, 0]\nclass = low (1)", fillcolor="#7be539"] ;
252 -> 253 ;
254 [label="Sample Question Papers Practiced <= 7.5\ngini = 0.198\nsamples = 18\nvalue = [0, 16, 2, 0, 0]\nclass = low (1)", fillcolor="#8ce852"] ;
252 -> 254 ;
255 [label="gini = 0.0\nsamples = 12\nvalue = [0, 12, 0, 0, 0]\nclass = low (1)", fillcolor="#7be539"] ;
254 -> 255 ;
256 [label="Previous Scores <= 43.0\ngini = 0.444\nsamples = 6\nvalue = [0, 4, 2, 0, 0]\nclass = low (1)", fillcolor="#bdf29c"] ;
254 -> 256 ;
257 [label="gini = 0.0\nsamples = 2\nvalue = [0, 2, 0, 0, 0]\nclass = low (1)", fillcolor="#7be539"] ;
256 -> 257 ;
258 [label="Extracurricular Activities <= 0.5\ngini = 0.5\nsamples = 4\nvalue = [0, 2, 2, 0, 0]\nclass = low (1)", fillcolor="#ffffff"] ;
256 -> 258 ;
259 [label="gini = 0.0\nsamples = 2\nvalue = [0, 2, 0, 0, 0]\nclass = low (1)", fillcolor="#7be539"] ;
258 -> 259 ;
260 [label="gini = 0.0\nsamples = 2\nvalue = [0, 0, 2, 0, 0]\nclass = good (2)", fillcolor="#39e5c5"] ;
258 -> 260 ;
261 [label="Sample Question Papers Practiced <= 5.5\ngini = 0.366\nsamples = 58\nvalue = [0, 44, 14, 0, 0]\nclass = low (1)", fillcolor="#a5ed78"] ;
251 -> 261 ;
262 [label="Sample Question Papers Practiced <= 0.5\ngini = 0.17\nsamples = 32\nvalue = [0, 29, 3, 0, 0]\nclass = low (1)", fillcolor="#89e84d"] ;
261 -> 262 ;
263 [label="Sleep Hours <= 5.5\ngini = 0.444\nsamples = 6\nvalue = [0, 4, 2, 0, 0]\nclass = low (1)", fillcolor="#bdf29c"] ;
262 -> 263 ;
264 [label="gini = 0.0\nsamples = 1\nvalue = [0, 1, 0, 0, 0]\nclass = low (1)", fillcolor="#7be539"] ;
263 -> 264 ;
265 [label="Sleep Hours <= 6.5\ngini = 0.48\nsamples = 5\nvalue = [0, 3, 2, 0, 0]\nclass = low (1)", fillcolor="#d3f6bd"] ;
263 -> 265 ;
266 [label="gini = 0.0\nsamples = 1\nvalue = [0, 0, 1, 0, 0]\nclass = good (2)", fillcolor="#39e5c5"] ;
265 -> 266 ;
267 [label="Previous Scores <= 47.5\ngini = 0.375\nsamples = 4\nvalue = [0, 3, 1, 0, 0]\nclass = low (1)", fillcolor="#a7ee7b"] ;
265 -> 267 ;
268 [label="gini = 0.5\nsamples = 2\nvalue = [0, 1, 1, 0, 0]\nclass = low (1)", fillcolor="#ffffff"] ;
267 -> 268 ;
269 [label="gini = 0.0\nsamples = 2\nvalue = [0, 2, 0, 0, 0]\nclass = low (1)", fillcolor="#7be539"] ;
267 -> 269 ;
270 [label="Sleep Hours <= 7.5\ngini = 0.074\nsamples = 26\nvalue = [0, 25, 1, 0, 0]\nclass = low (1)", fillcolor="#80e641"] ;
262 -> 270 ;
271 [label="gini = 0.0\nsamples = 20\nvalue = [0, 20, 0, 0, 0]\nclass = low (1)", fillcolor="#7be539"] ;
270 -> 271 ;
272 [label="Sample Question Papers Practiced <= 3.0\ngini = 0.278\nsamples = 6\nvalue = [0, 5, 1, 0, 0]\nclass = low (1)", fillcolor="#95ea61"] ;
270 -> 272 ;
273 [label="gini = 0.0\nsamples = 4\nvalue = [0, 4, 0, 0, 0]\nclass = low (1)", fillcolor="#7be539"] ;
272 -> 273 ;
274 [label="Extracurricular Activities <= 0.5\ngini = 0.5\nsamples = 2\nvalue = [0, 1, 1, 0, 0]\nclass = low (1)", fillcolor="#ffffff"] ;
272 -> 274 ;
275 [label="gini = 0.0\nsamples = 1\nvalue = [0, 1, 0, 0, 0]\nclass = low (1)", fillcolor="#7be539"] ;
274 -> 275 ;
276 [label="gini = 0.0\nsamples = 1\nvalue = [0, 0, 1, 0, 0]\nclass = good (2)", fillcolor="#39e5c5"] ;
274 -> 276 ;
277 [label="Previous Scores <= 47.5\ngini = 0.488\nsamples = 26\nvalue = [0, 15, 11, 0, 0]\nclass = low (1)", fillcolor="#dcf8ca"] ;
261 -> 277 ;
278 [label="Sample Question Papers Practiced <= 6.5\ngini = 0.355\nsamples = 13\nvalue = [0, 10, 3, 0, 0]\nclass = low (1)", fillcolor="#a3ed74"] ;
277 -> 278 ;
279 [label="Sleep Hours <= 5.5\ngini = 0.49\nsamples = 7\nvalue = [0, 4, 3, 0, 0]\nclass = low (1)", fillcolor="#def8ce"] ;
278 -> 279 ;
280 [label="gini = 0.0\nsamples = 1\nvalue = [0, 1, 0, 0, 0]\nclass = low (1)", fillcolor="#7be539"] ;
279 -> 280 ;
281 [label="Sleep Hours <= 6.5\ngini = 0.5\nsamples = 6\nvalue = [0, 3, 3, 0, 0]\nclass = low (1)", fillcolor="#ffffff"] ;
279 -> 281 ;
282 [label="gini = 0.0\nsamples = 1\nvalue = [0, 0, 1, 0, 0]\nclass = good (2)", fillcolor="#39e5c5"] ;
281 -> 282 ;
283 [label="Extracurricular Activities <= 0.5\ngini = 0.48\nsamples = 5\nvalue = [0, 3, 2, 0, 0]\nclass = low (1)", fillcolor="#d3f6bd"] ;
281 -> 283 ;
284 [label="gini = 0.5\nsamples = 2\nvalue = [0, 1, 1, 0, 0]\nclass = low (1)", fillcolor="#ffffff"] ;
283 -> 284 ;
285 [label="Sleep Hours <= 8.5\ngini = 0.444\nsamples = 3\nvalue = [0, 2, 1, 0, 0]\nclass = low (1)", fillcolor="#bdf29c"] ;
283 -> 285 ;
286 [label="gini = 0.0\nsamples = 1\nvalue = [0, 1, 0, 0, 0]\nclass = low (1)", fillcolor="#7be539"] ;
285 -> 286 ;
287 [label="gini = 0.5\nsamples = 2\nvalue = [0, 1, 1, 0, 0]\nclass = low (1)", fillcolor="#ffffff"] ;
285 -> 287 ;
288 [label="gini = 0.0\nsamples = 6\nvalue = [0, 6, 0, 0, 0]\nclass = low (1)", fillcolor="#7be539"] ;
278 -> 288 ;
289 [label="Sleep Hours <= 6.5\ngini = 0.473\nsamples = 13\nvalue = [0, 5, 8, 0, 0]\nclass = good (2)", fillcolor="#b5f5e9"] ;
277 -> 289 ;
290 [label="Sample Question Papers Practiced <= 6.5\ngini = 0.278\nsamples = 6\nvalue = [0, 1, 5, 0, 0]\nclass = good (2)", fillcolor="#61ead1"] ;
289 -> 290 ;
291 [label="gini = 0.5\nsamples = 2\nvalue = [0, 1, 1, 0, 0]\nclass = low (1)", fillcolor="#ffffff"] ;
290 -> 291 ;
292 [label="gini = 0.0\nsamples = 4\nvalue = [0, 0, 4, 0, 0]\nclass = good (2)", fillcolor="#39e5c5"] ;
290 -> 292 ;
293 [label="Sample Question Papers Practiced <= 7.5\ngini = 0.49\nsamples = 7\nvalue = [0, 4, 3, 0, 0]\nclass = low (1)", fillcolor="#def8ce"] ;
289 -> 293 ;
294 [label="gini = 0.0\nsamples = 2\nvalue = [0, 2, 0, 0, 0]\nclass = low (1)", fillcolor="#7be539"] ;
293 -> 294 ;
295 [label="Previous Scores <= 48.5\ngini = 0.48\nsamples = 5\nvalue = [0, 2, 3, 0, 0]\nclass = good (2)", fillcolor="#bdf6ec"] ;
293 -> 295 ;
296 [label="gini = 0.0\nsamples = 2\nvalue = [0, 0, 2, 0, 0]\nclass = good (2)", fillcolor="#39e5c5"] ;
295 -> 296 ;
297 [label="Sample Question Papers Practiced <= 8.5\ngini = 0.444\nsamples = 3\nvalue = [0, 2, 1, 0, 0]\nclass = low (1)", fillcolor="#bdf29c"] ;
295 -> 297 ;
298 [label="gini = 0.0\nsamples = 1\nvalue = [0, 1, 0, 0, 0]\nclass = low (1)", fillcolor="#7be539"] ;
297 -> 298 ;
299 [label="Extracurricular Activities <= 0.5\ngini = 0.5\nsamples = 2\nvalue = [0, 1, 1, 0, 0]\nclass = low (1)", fillcolor="#ffffff"] ;
297 -> 299 ;
300 [label="gini = 0.0\nsamples = 1\nvalue = [0, 0, 1, 0, 0]\nclass = good (2)", fillcolor="#39e5c5"] ;
299 -> 300 ;
301 [label="gini = 0.0\nsamples = 1\nvalue = [0, 1, 0, 0, 0]\nclass = low (1)", fillcolor="#7be539"] ;
299 -> 301 ;
302 [label="Previous Scores <= 51.5\ngini = 0.257\nsamples = 33\nvalue = [0, 5, 28, 0, 0]\nclass = good (2)", fillcolor="#5ceacf"] ;
250 -> 302 ;
303 [label="Sample Question Papers Practiced <= 6.5\ngini = 0.33\nsamples = 24\nvalue = [0, 5, 19, 0, 0]\nclass = good (2)", fillcolor="#6decd4"] ;
302 -> 303 ;
304 [label="Sleep Hours <= 4.5\ngini = 0.266\nsamples = 19\nvalue = [0, 3, 16, 0, 0]\nclass = good (2)", fillcolor="#5eead0"] ;
303 -> 304 ;
305 [label="Extracurricular Activities <= 0.5\ngini = 0.5\nsamples = 2\nvalue = [0, 1, 1, 0, 0]\nclass = low (1)", fillcolor="#ffffff"] ;
304 -> 305 ;
306 [label="gini = 0.0\nsamples = 1\nvalue = [0, 0, 1, 0, 0]\nclass = good (2)", fillcolor="#39e5c5"] ;
305 -> 306 ;
307 [label="gini = 0.0\nsamples = 1\nvalue = [0, 1, 0, 0, 0]\nclass = low (1)", fillcolor="#7be539"] ;
305 -> 307 ;
308 [label="Extracurricular Activities <= 0.5\ngini = 0.208\nsamples = 17\nvalue = [0, 2, 15, 0, 0]\nclass = good (2)", fillcolor="#53e8cd"] ;
304 -> 308 ;
309 [label="Sample Question Papers Practiced <= 1.5\ngini = 0.346\nsamples = 9\nvalue = [0, 2, 7, 0, 0]\nclass = good (2)", fillcolor="#72ecd6"] ;
308 -> 309 ;
310 [label="gini = 0.0\nsamples = 1\nvalue = [0, 1, 0, 0, 0]\nclass = low (1)", fillcolor="#7be539"] ;
309 -> 310 ;
311 [label="Previous Scores <= 50.5\ngini = 0.219\nsamples = 8\nvalue = [0, 1, 7, 0, 0]\nclass = good (2)", fillcolor="#55e9cd"] ;
309 -> 311 ;
312 [label="Sample Question Papers Practiced <= 4.5\ngini = 0.444\nsamples = 3\nvalue = [0, 1, 2, 0, 0]\nclass = good (2)", fillcolor="#9cf2e2"] ;
311 -> 312 ;
313 [label="gini = 0.0\nsamples = 1\nvalue = [0, 1, 0, 0, 0]\nclass = low (1)", fillcolor="#7be539"] ;
312 -> 313 ;
314 [label="gini = 0.0\nsamples = 2\nvalue = [0, 0, 2, 0, 0]\nclass = good (2)", fillcolor="#39e5c5"] ;
312 -> 314 ;
315 [label="gini = 0.0\nsamples = 5\nvalue = [0, 0, 5, 0, 0]\nclass = good (2)", fillcolor="#39e5c5"] ;
311 -> 315 ;
316 [label="gini = 0.0\nsamples = 8\nvalue = [0, 0, 8, 0, 0]\nclass = good (2)", fillcolor="#39e5c5"] ;
308 -> 316 ;
317 [label="Sample Question Papers Practiced <= 7.5\ngini = 0.48\nsamples = 5\nvalue = [0, 2, 3, 0, 0]\nclass = good (2)", fillcolor="#bdf6ec"] ;
303 -> 317 ;
318 [label="gini = 0.0\nsamples = 2\nvalue = [0, 2, 0, 0, 0]\nclass = low (1)", fillcolor="#7be539"] ;
317 -> 318 ;
319 [label="gini = 0.0\nsamples = 3\nvalue = [0, 0, 3, 0, 0]\nclass = good (2)", fillcolor="#39e5c5"] ;
317 -> 319 ;
320 [label="gini = 0.0\nsamples = 9\nvalue = [0, 0, 9, 0, 0]\nclass = good (2)", fillcolor="#39e5c5"] ;
302 -> 320 ;
321 [label="Hours Studied <= 5.5\ngini = 0.488\nsamples = 173\nvalue = [0, 100, 73, 0, 0]\nclass = low (1)", fillcolor="#dbf8ca"] ;
151 -> 321 ;
322 [label="Hours Studied <= 4.5\ngini = 0.213\nsamples = 99\nvalue = [0, 87, 12, 0, 0]\nclass = low (1)", fillcolor="#8de954"] ;
321 -> 322 ;
323 [label="Sleep Hours <= 5.5\ngini = 0.033\nsamples = 59\nvalue = [0, 58, 1, 0, 0]\nclass = low (1)", fillcolor="#7de53c"] ;
322 -> 323 ;
324 [label="Previous Scores <= 53.5\ngini = 0.105\nsamples = 18\nvalue = [0, 17, 1, 0, 0]\nclass = low (1)", fillcolor="#83e745"] ;
323 -> 324 ;
325 [label="Sample Question Papers Practiced <= 4.5\ngini = 0.245\nsamples = 7\nvalue = [0, 6, 1, 0, 0]\nclass = low (1)", fillcolor="#91e95a"] ;
324 -> 325 ;
326 [label="gini = 0.0\nsamples = 4\nvalue = [0, 4, 0, 0, 0]\nclass = low (1)", fillcolor="#7be539"] ;
325 -> 326 ;
327 [label="Sample Question Papers Practiced <= 7.0\ngini = 0.444\nsamples = 3\nvalue = [0, 2, 1, 0, 0]\nclass = low (1)", fillcolor="#bdf29c"] ;
325 -> 327 ;
328 [label="gini = 0.0\nsamples = 1\nvalue = [0, 0, 1, 0, 0]\nclass = good (2)", fillcolor="#39e5c5"] ;
327 -> 328 ;
329 [label="gini = 0.0\nsamples = 2\nvalue = [0, 2, 0, 0, 0]\nclass = low (1)", fillcolor="#7be539"] ;
327 -> 329 ;
330 [label="gini = 0.0\nsamples = 11\nvalue = [0, 11, 0, 0, 0]\nclass = low (1)", fillcolor="#7be539"] ;
324 -> 330 ;
331 [label="gini = 0.0\nsamples = 41\nvalue = [0, 41, 0, 0, 0]\nclass = low (1)", fillcolor="#7be539"] ;
323 -> 331 ;
332 [label="Sample Question Papers Practiced <= 3.5\ngini = 0.399\nsamples = 40\nvalue = [0, 29, 11, 0, 0]\nclass = low (1)", fillcolor="#adef84"] ;
322 -> 332 ;
333 [label="Sleep Hours <= 4.5\ngini = 0.498\nsamples = 15\nvalue = [0, 8, 7, 0, 0]\nclass = low (1)", fillcolor="#eefce6"] ;
332 -> 333 ;
334 [label="gini = 0.0\nsamples = 1\nvalue = [0, 0, 1, 0, 0]\nclass = good (2)", fillcolor="#39e5c5"] ;
333 -> 334 ;
335 [label="Sleep Hours <= 5.5\ngini = 0.49\nsamples = 14\nvalue = [0, 8, 6, 0, 0]\nclass = low (1)", fillcolor="#def8ce"] ;
333 -> 335 ;
336 [label="gini = 0.0\nsamples = 2\nvalue = [0, 2, 0, 0, 0]\nclass = low (1)", fillcolor="#7be539"] ;
335 -> 336 ;
337 [label="Sample Question Papers Practiced <= 0.5\ngini = 0.5\nsamples = 12\nvalue = [0, 6, 6, 0, 0]\nclass = low (1)", fillcolor="#ffffff"] ;
335 -> 337 ;
338 [label="gini = 0.0\nsamples = 1\nvalue = [0, 1, 0, 0, 0]\nclass = low (1)", fillcolor="#7be539"] ;
337 -> 338 ;
339 [label="Sample Question Papers Practiced <= 1.5\ngini = 0.496\nsamples = 11\nvalue = [0, 5, 6, 0, 0]\nclass = good (2)", fillcolor="#defbf5"] ;
337 -> 339 ;
340 [label="gini = 0.0\nsamples = 1\nvalue = [0, 0, 1, 0, 0]\nclass = good (2)", fillcolor="#39e5c5"] ;
339 -> 340 ;
341 [label="Sleep Hours <= 6.5\ngini = 0.5\nsamples = 10\nvalue = [0, 5, 5, 0, 0]\nclass = low (1)", fillcolor="#ffffff"] ;
339 -> 341 ;
342 [label="Previous Scores <= 53.5\ngini = 0.444\nsamples = 3\nvalue = [0, 1, 2, 0, 0]\nclass = good (2)", fillcolor="#9cf2e2"] ;
341 -> 342 ;
343 [label="gini = 0.5\nsamples = 2\nvalue = [0, 1, 1, 0, 0]\nclass = low (1)", fillcolor="#ffffff"] ;
342 -> 343 ;
344 [label="gini = 0.0\nsamples = 1\nvalue = [0, 0, 1, 0, 0]\nclass = good (2)", fillcolor="#39e5c5"] ;
342 -> 344 ;
345 [label="Previous Scores <= 53.5\ngini = 0.49\nsamples = 7\nvalue = [0, 4, 3, 0, 0]\nclass = low (1)", fillcolor="#def8ce"] ;
341 -> 345 ;
346 [label="Extracurricular Activities <= 0.5\ngini = 0.5\nsamples = 4\nvalue = [0, 2, 2, 0, 0]\nclass = low (1)", fillcolor="#ffffff"] ;
345 -> 346 ;
347 [label="Sleep Hours <= 7.5\ngini = 0.444\nsamples = 3\nvalue = [0, 1, 2, 0, 0]\nclass = good (2)", fillcolor="#9cf2e2"] ;
346 -> 347 ;
348 [label="gini = 0.0\nsamples = 1\nvalue = [0, 0, 1, 0, 0]\nclass = good (2)", fillcolor="#39e5c5"] ;
347 -> 348 ;
349 [label="Sleep Hours <= 8.5\ngini = 0.5\nsamples = 2\nvalue = [0, 1, 1, 0, 0]\nclass = low (1)", fillcolor="#ffffff"] ;
347 -> 349 ;
350 [label="gini = 0.0\nsamples = 1\nvalue = [0, 1, 0, 0, 0]\nclass = low (1)", fillcolor="#7be539"] ;
349 -> 350 ;
351 [label="gini = 0.0\nsamples = 1\nvalue = [0, 0, 1, 0, 0]\nclass = good (2)", fillcolor="#39e5c5"] ;
349 -> 351 ;
352 [label="gini = 0.0\nsamples = 1\nvalue = [0, 1, 0, 0, 0]\nclass = low (1)", fillcolor="#7be539"] ;
346 -> 352 ;
353 [label="Extracurricular Activities <= 0.5\ngini = 0.444\nsamples = 3\nvalue = [0, 2, 1, 0, 0]\nclass = low (1)", fillcolor="#bdf29c"] ;
345 -> 353 ;
354 [label="gini = 0.0\nsamples = 1\nvalue = [0, 1, 0, 0, 0]\nclass = low (1)", fillcolor="#7be539"] ;
353 -> 354 ;
355 [label="Sleep Hours <= 7.5\ngini = 0.5\nsamples = 2\nvalue = [0, 1, 1, 0, 0]\nclass = low (1)", fillcolor="#ffffff"] ;
353 -> 355 ;
356 [label="gini = 0.0\nsamples = 1\nvalue = [0, 1, 0, 0, 0]\nclass = low (1)", fillcolor="#7be539"] ;
355 -> 356 ;
357 [label="gini = 0.0\nsamples = 1\nvalue = [0, 0, 1, 0, 0]\nclass = good (2)", fillcolor="#39e5c5"] ;
355 -> 357 ;
358 [label="Sample Question Papers Practiced <= 5.5\ngini = 0.269\nsamples = 25\nvalue = [0, 21, 4, 0, 0]\nclass = low (1)", fillcolor="#94ea5f"] ;
332 -> 358 ;
359 [label="Sleep Hours <= 7.0\ngini = 0.408\nsamples = 7\nvalue = [0, 5, 2, 0, 0]\nclass = low (1)", fillcolor="#b0ef88"] ;
358 -> 359 ;
360 [label="gini = 0.0\nsamples = 3\nvalue = [0, 3, 0, 0, 0]\nclass = low (1)", fillcolor="#7be539"] ;
359 -> 360 ;
361 [label="Sleep Hours <= 8.5\ngini = 0.5\nsamples = 4\nvalue = [0, 2, 2, 0, 0]\nclass = low (1)", fillcolor="#ffffff"] ;
359 -> 361 ;
362 [label="gini = 0.0\nsamples = 2\nvalue = [0, 0, 2, 0, 0]\nclass = good (2)", fillcolor="#39e5c5"] ;
361 -> 362 ;
363 [label="gini = 0.0\nsamples = 2\nvalue = [0, 2, 0, 0, 0]\nclass = low (1)", fillcolor="#7be539"] ;
361 -> 363 ;
364 [label="Sample Question Papers Practiced <= 7.5\ngini = 0.198\nsamples = 18\nvalue = [0, 16, 2, 0, 0]\nclass = low (1)", fillcolor="#8ce852"] ;
358 -> 364 ;
365 [label="gini = 0.0\nsamples = 6\nvalue = [0, 6, 0, 0, 0]\nclass = low (1)", fillcolor="#7be539"] ;
364 -> 365 ;
366 [label="Previous Scores <= 53.5\ngini = 0.278\nsamples = 12\nvalue = [0, 10, 2, 0, 0]\nclass = low (1)", fillcolor="#95ea61"] ;
364 -> 366 ;
367 [label="gini = 0.0\nsamples = 4\nvalue = [0, 4, 0, 0, 0]\nclass = low (1)", fillcolor="#7be539"] ;
366 -> 367 ;
368 [label="Extracurricular Activities <= 0.5\ngini = 0.375\nsamples = 8\nvalue = [0, 6, 2, 0, 0]\nclass = low (1)", fillcolor="#a7ee7b"] ;
366 -> 368 ;
369 [label="Sample Question Papers Practiced <= 8.5\ngini = 0.5\nsamples = 2\nvalue = [0, 1, 1, 0, 0]\nclass = low (1)", fillcolor="#ffffff"] ;
368 -> 369 ;
370 [label="gini = 0.0\nsamples = 1\nvalue = [0, 1, 0, 0, 0]\nclass = low (1)", fillcolor="#7be539"] ;
369 -> 370 ;
371 [label="gini = 0.0\nsamples = 1\nvalue = [0, 0, 1, 0, 0]\nclass = good (2)", fillcolor="#39e5c5"] ;
369 -> 371 ;
372 [label="Sleep Hours <= 7.0\ngini = 0.278\nsamples = 6\nvalue = [0, 5, 1, 0, 0]\nclass = low (1)", fillcolor="#95ea61"] ;
368 -> 372 ;
373 [label="gini = 0.0\nsamples = 3\nvalue = [0, 3, 0, 0, 0]\nclass = low (1)", fillcolor="#7be539"] ;
372 -> 373 ;
374 [label="Sample Question Papers Practiced <= 8.5\ngini = 0.444\nsamples = 3\nvalue = [0, 2, 1, 0, 0]\nclass = low (1)", fillcolor="#bdf29c"] ;
372 -> 374 ;
375 [label="gini = 0.0\nsamples = 1\nvalue = [0, 0, 1, 0, 0]\nclass = good (2)", fillcolor="#39e5c5"] ;
374 -> 375 ;
376 [label="gini = 0.0\nsamples = 2\nvalue = [0, 2, 0, 0, 0]\nclass = low (1)", fillcolor="#7be539"] ;
374 -> 376 ;
377 [label="Sleep Hours <= 6.5\ngini = 0.29\nsamples = 74\nvalue = [0, 13, 61, 0, 0]\nclass = good (2)", fillcolor="#63ebd1"] ;
321 -> 377 ;
378 [label="Hours Studied <= 6.5\ngini = 0.375\nsamples = 44\nvalue = [0, 11, 33, 0, 0]\nclass = good (2)", fillcolor="#7beed8"] ;
377 -> 378 ;
379 [label="Previous Scores <= 53.5\ngini = 0.455\nsamples = 20\nvalue = [0, 7, 13, 0, 0]\nclass = good (2)", fillcolor="#a4f3e4"] ;
378 -> 379 ;
380 [label="Sample Question Papers Practiced <= 4.5\ngini = 0.5\nsamples = 8\nvalue = [0, 4, 4, 0, 0]\nclass = low (1)", fillcolor="#ffffff"] ;
379 -> 380 ;
381 [label="gini = 0.0\nsamples = 1\nvalue = [0, 1, 0, 0, 0]\nclass = low (1)", fillcolor="#7be539"] ;
380 -> 381 ;
382 [label="Sample Question Papers Practiced <= 5.5\ngini = 0.49\nsamples = 7\nvalue = [0, 3, 4, 0, 0]\nclass = good (2)", fillcolor="#cef8f0"] ;
380 -> 382 ;
383 [label="gini = 0.0\nsamples = 2\nvalue = [0, 0, 2, 0, 0]\nclass = good (2)", fillcolor="#39e5c5"] ;
382 -> 383 ;
384 [label="Sample Question Papers Practiced <= 6.5\ngini = 0.48\nsamples = 5\nvalue = [0, 3, 2, 0, 0]\nclass = low (1)", fillcolor="#d3f6bd"] ;
382 -> 384 ;
385 [label="gini = 0.0\nsamples = 2\nvalue = [0, 2, 0, 0, 0]\nclass = low (1)", fillcolor="#7be539"] ;
384 -> 385 ;
386 [label="Sample Question Papers Practiced <= 8.5\ngini = 0.444\nsamples = 3\nvalue = [0, 1, 2, 0, 0]\nclass = good (2)", fillcolor="#9cf2e2"] ;
384 -> 386 ;
387 [label="gini = 0.0\nsamples = 2\nvalue = [0, 0, 2, 0, 0]\nclass = good (2)", fillcolor="#39e5c5"] ;
386 -> 387 ;
388 [label="gini = 0.0\nsamples = 1\nvalue = [0, 1, 0, 0, 0]\nclass = low (1)", fillcolor="#7be539"] ;
386 -> 388 ;
389 [label="Sleep Hours <= 5.5\ngini = 0.375\nsamples = 12\nvalue = [0, 3, 9, 0, 0]\nclass = good (2)", fillcolor="#7beed8"] ;
379 -> 389 ;
390 [label="Sample Question Papers Practiced <= 1.5\ngini = 0.444\nsamples = 9\nvalue = [0, 3, 6, 0, 0]\nclass = good (2)", fillcolor="#9cf2e2"] ;
389 -> 390 ;
391 [label="gini = 0.0\nsamples = 1\nvalue = [0, 1, 0, 0, 0]\nclass = low (1)", fillcolor="#7be539"] ;
390 -> 391 ;
392 [label="Sample Question Papers Practiced <= 4.5\ngini = 0.375\nsamples = 8\nvalue = [0, 2, 6, 0, 0]\nclass = good (2)", fillcolor="#7beed8"] ;
390 -> 392 ;
393 [label="gini = 0.0\nsamples = 2\nvalue = [0, 0, 2, 0, 0]\nclass = good (2)", fillcolor="#39e5c5"] ;
392 -> 393 ;
394 [label="Sample Question Papers Practiced <= 8.5\ngini = 0.444\nsamples = 6\nvalue = [0, 2, 4, 0, 0]\nclass = good (2)", fillcolor="#9cf2e2"] ;
392 -> 394 ;
395 [label="Sample Question Papers Practiced <= 7.5\ngini = 0.48\nsamples = 5\nvalue = [0, 2, 3, 0, 0]\nclass = good (2)", fillcolor="#bdf6ec"] ;
394 -> 395 ;
396 [label="Sleep Hours <= 4.5\ngini = 0.375\nsamples = 4\nvalue = [0, 1, 3, 0, 0]\nclass = good (2)", fillcolor="#7beed8"] ;
395 -> 396 ;
397 [label="Extracurricular Activities <= 0.5\ngini = 0.5\nsamples = 2\nvalue = [0, 1, 1, 0, 0]\nclass = low (1)", fillcolor="#ffffff"] ;
396 -> 397 ;
398 [label="gini = 0.0\nsamples = 1\nvalue = [0, 0, 1, 0, 0]\nclass = good (2)", fillcolor="#39e5c5"] ;
397 -> 398 ;
399 [label="gini = 0.0\nsamples = 1\nvalue = [0, 1, 0, 0, 0]\nclass = low (1)", fillcolor="#7be539"] ;
397 -> 399 ;
400 [label="gini = 0.0\nsamples = 2\nvalue = [0, 0, 2, 0, 0]\nclass = good (2)", fillcolor="#39e5c5"] ;
396 -> 400 ;
401 [label="gini = 0.0\nsamples = 1\nvalue = [0, 1, 0, 0, 0]\nclass = low (1)", fillcolor="#7be539"] ;
395 -> 401 ;
402 [label="gini = 0.0\nsamples = 1\nvalue = [0, 0, 1, 0, 0]\nclass = good (2)", fillcolor="#39e5c5"] ;
394 -> 402 ;
403 [label="gini = 0.0\nsamples = 3\nvalue = [0, 0, 3, 0, 0]\nclass = good (2)", fillcolor="#39e5c5"] ;
389 -> 403 ;
404 [label="Sample Question Papers Practiced <= 7.5\ngini = 0.278\nsamples = 24\nvalue = [0, 4, 20, 0, 0]\nclass = good (2)", fillcolor="#61ead1"] ;
378 -> 404 ;
405 [label="Sample Question Papers Practiced <= 4.0\ngini = 0.198\nsamples = 18\nvalue = [0, 2, 16, 0, 0]\nclass = good (2)", fillcolor="#52e8cc"] ;
404 -> 405 ;
406 [label="Sample Question Papers Practiced <= 2.5\ngini = 0.346\nsamples = 9\nvalue = [0, 2, 7, 0, 0]\nclass = good (2)", fillcolor="#72ecd6"] ;
405 -> 406 ;
407 [label="gini = 0.0\nsamples = 5\nvalue = [0, 0, 5, 0, 0]\nclass = good (2)", fillcolor="#39e5c5"] ;
406 -> 407 ;
408 [label="Sleep Hours <= 4.5\ngini = 0.5\nsamples = 4\nvalue = [0, 2, 2, 0, 0]\nclass = low (1)", fillcolor="#ffffff"] ;
406 -> 408 ;
409 [label="gini = 0.0\nsamples = 1\nvalue = [0, 0, 1, 0, 0]\nclass = good (2)", fillcolor="#39e5c5"] ;
408 -> 409 ;
410 [label="Previous Scores <= 53.5\ngini = 0.444\nsamples = 3\nvalue = [0, 2, 1, 0, 0]\nclass = low (1)", fillcolor="#bdf29c"] ;
408 -> 410 ;
411 [label="Extracurricular Activities <= 0.5\ngini = 0.5\nsamples = 2\nvalue = [0, 1, 1, 0, 0]\nclass = low (1)", fillcolor="#ffffff"] ;
410 -> 411 ;
412 [label="gini = 0.0\nsamples = 1\nvalue = [0, 1, 0, 0, 0]\nclass = low (1)", fillcolor="#7be539"] ;
411 -> 412 ;
413 [label="gini = 0.0\nsamples = 1\nvalue = [0, 0, 1, 0, 0]\nclass = good (2)", fillcolor="#39e5c5"] ;
411 -> 413 ;
414 [label="gini = 0.0\nsamples = 1\nvalue = [0, 1, 0, 0, 0]\nclass = low (1)", fillcolor="#7be539"] ;
410 -> 414 ;
415 [label="gini = 0.0\nsamples = 9\nvalue = [0, 0, 9, 0, 0]\nclass = good (2)", fillcolor="#39e5c5"] ;
405 -> 415 ;
416 [label="Previous Scores <= 53.5\ngini = 0.444\nsamples = 6\nvalue = [0, 2, 4, 0, 0]\nclass = good (2)", fillcolor="#9cf2e2"] ;
404 -> 416 ;
417 [label="Sleep Hours <= 4.5\ngini = 0.5\nsamples = 4\nvalue = [0, 2, 2, 0, 0]\nclass = low (1)", fillcolor="#ffffff"] ;
416 -> 417 ;
418 [label="gini = 0.0\nsamples = 1\nvalue = [0, 1, 0, 0, 0]\nclass = low (1)", fillcolor="#7be539"] ;
417 -> 418 ;
419 [label="Sample Question Papers Practiced <= 8.5\ngini = 0.444\nsamples = 3\nvalue = [0, 1, 2, 0, 0]\nclass = good (2)", fillcolor="#9cf2e2"] ;
417 -> 419 ;
420 [label="gini = 0.0\nsamples = 1\nvalue = [0, 0, 1, 0, 0]\nclass = good (2)", fillcolor="#39e5c5"] ;
419 -> 420 ;
421 [label="gini = 0.5\nsamples = 2\nvalue = [0, 1, 1, 0, 0]\nclass = low (1)", fillcolor="#ffffff"] ;
419 -> 421 ;
422 [label="gini = 0.0\nsamples = 2\nvalue = [0, 0, 2, 0, 0]\nclass = good (2)", fillcolor="#39e5c5"] ;
416 -> 422 ;
423 [label="Sample Question Papers Practiced <= 2.5\ngini = 0.124\nsamples = 30\nvalue = [0, 2, 28, 0, 0]\nclass = good (2)", fillcolor="#47e7c9"] ;
377 -> 423 ;
424 [label="Extracurricular Activities <= 0.5\ngini = 0.375\nsamples = 8\nvalue = [0, 2, 6, 0, 0]\nclass = good (2)", fillcolor="#7beed8"] ;
423 -> 424 ;
425 [label="Hours Studied <= 6.5\ngini = 0.444\nsamples = 6\nvalue = [0, 2, 4, 0, 0]\nclass = good (2)", fillcolor="#9cf2e2"] ;
424 -> 425 ;
426 [label="Previous Scores <= 53.5\ngini = 0.5\nsamples = 4\nvalue = [0, 2, 2, 0, 0]\nclass = low (1)", fillcolor="#ffffff"] ;
425 -> 426 ;
427 [label="gini = 0.0\nsamples = 1\nvalue = [0, 1, 0, 0, 0]\nclass = low (1)", fillcolor="#7be539"] ;
426 -> 427 ;
428 [label="Sample Question Papers Practiced <= 1.5\ngini = 0.444\nsamples = 3\nvalue = [0, 1, 2, 0, 0]\nclass = good (2)", fillcolor="#9cf2e2"] ;
426 -> 428 ;
429 [label="Sleep Hours <= 7.5\ngini = 0.5\nsamples = 2\nvalue = [0, 1, 1, 0, 0]\nclass = low (1)", fillcolor="#ffffff"] ;
428 -> 429 ;
430 [label="gini = 0.0\nsamples = 1\nvalue = [0, 1, 0, 0, 0]\nclass = low (1)", fillcolor="#7be539"] ;
429 -> 430 ;
431 [label="gini = 0.0\nsamples = 1\nvalue = [0, 0, 1, 0, 0]\nclass = good (2)", fillcolor="#39e5c5"] ;
429 -> 431 ;
432 [label="gini = 0.0\nsamples = 1\nvalue = [0, 0, 1, 0, 0]\nclass = good (2)", fillcolor="#39e5c5"] ;
428 -> 432 ;
433 [label="gini = 0.0\nsamples = 2\nvalue = [0, 0, 2, 0, 0]\nclass = good (2)", fillcolor="#39e5c5"] ;
425 -> 433 ;
434 [label="gini = 0.0\nsamples = 2\nvalue = [0, 0, 2, 0, 0]\nclass = good (2)", fillcolor="#39e5c5"] ;
424 -> 434 ;
435 [label="gini = 0.0\nsamples = 22\nvalue = [0, 0, 22, 0, 0]\nclass = good (2)", fillcolor="#39e5c5"] ;
423 -> 435 ;
436 [label="Previous Scores <= 45.5\ngini = 0.461\nsamples = 458\nvalue = [0, 165, 293, 0, 0]\nclass = good (2)", fillcolor="#a9f4e6"] ;
2 -> 436 ;
437 [label="Previous Scores <= 42.5\ngini = 0.362\nsamples = 181\nvalue = [0, 138, 43, 0, 0]\nclass = low (1)", fillcolor="#a4ed77"] ;
436 -> 437 ;
438 [label="Sample Question Papers Practiced <= 8.5\ngini = 0.164\nsamples = 89\nvalue = [0, 81, 8, 0, 0]\nclass = low (1)", fillcolor="#88e84d"] ;
437 -> 438 ;
439 [label="Hours Studied <= 8.5\ngini = 0.117\nsamples = 80\nvalue = [0, 75, 5, 0, 0]\nclass = low (1)", fillcolor="#84e746"] ;
438 -> 439 ;
440 [label="gini = 0.0\nsamples = 38\nvalue = [0, 38, 0, 0, 0]\nclass = low (1)", fillcolor="#7be539"] ;
439 -> 440 ;
441 [label="Sleep Hours <= 6.5\ngini = 0.21\nsamples = 42\nvalue = [0, 37, 5, 0, 0]\nclass = low (1)", fillcolor="#8de954"] ;
439 -> 441 ;
442 [label="gini = 0.0\nsamples = 18\nvalue = [0, 18, 0, 0, 0]\nclass = low (1)", fillcolor="#7be539"] ;
441 -> 442 ;
443 [label="Previous Scores <= 40.5\ngini = 0.33\nsamples = 24\nvalue = [0, 19, 5, 0, 0]\nclass = low (1)", fillcolor="#9eec6d"] ;
441 -> 443 ;
444 [label="gini = 0.0\nsamples = 6\nvalue = [0, 6, 0, 0, 0]\nclass = low (1)", fillcolor="#7be539"] ;
443 -> 444 ;
445 [label="Sample Question Papers Practiced <= 6.5\ngini = 0.401\nsamples = 18\nvalue = [0, 13, 5, 0, 0]\nclass = low (1)", fillcolor="#aeef85"] ;
443 -> 445 ;
446 [label="Sleep Hours <= 7.5\ngini = 0.444\nsamples = 15\nvalue = [0, 10, 5, 0, 0]\nclass = low (1)", fillcolor="#bdf29c"] ;
445 -> 446 ;
447 [label="Sample Question Papers Practiced <= 4.5\ngini = 0.278\nsamples = 6\nvalue = [0, 5, 1, 0, 0]\nclass = low (1)", fillcolor="#95ea61"] ;
446 -> 447 ;
448 [label="Sample Question Papers Practiced <= 3.5\ngini = 0.444\nsamples = 3\nvalue = [0, 2, 1, 0, 0]\nclass = low (1)", fillcolor="#bdf29c"] ;
447 -> 448 ;
449 [label="gini = 0.0\nsamples = 2\nvalue = [0, 2, 0, 0, 0]\nclass = low (1)", fillcolor="#7be539"] ;
448 -> 449 ;
450 [label="gini = 0.0\nsamples = 1\nvalue = [0, 0, 1, 0, 0]\nclass = good (2)", fillcolor="#39e5c5"] ;
448 -> 450 ;
451 [label="gini = 0.0\nsamples = 3\nvalue = [0, 3, 0, 0, 0]\nclass = low (1)", fillcolor="#7be539"] ;
447 -> 451 ;
452 [label="Sample Question Papers Practiced <= 0.5\ngini = 0.494\nsamples = 9\nvalue = [0, 5, 4, 0, 0]\nclass = low (1)", fillcolor="#e5fad7"] ;
446 -> 452 ;
453 [label="gini = 0.0\nsamples = 1\nvalue = [0, 1, 0, 0, 0]\nclass = low (1)", fillcolor="#7be539"] ;
452 -> 453 ;
454 [label="Sample Question Papers Practiced <= 2.5\ngini = 0.5\nsamples = 8\nvalue = [0, 4, 4, 0, 0]\nclass = low (1)", fillcolor="#ffffff"] ;
452 -> 454 ;
455 [label="gini = 0.0\nsamples = 2\nvalue = [0, 0, 2, 0, 0]\nclass = good (2)", fillcolor="#39e5c5"] ;
454 -> 455 ;
456 [label="Sample Question Papers Practiced <= 5.5\ngini = 0.444\nsamples = 6\nvalue = [0, 4, 2, 0, 0]\nclass = low (1)", fillcolor="#bdf29c"] ;
454 -> 456 ;
457 [label="gini = 0.0\nsamples = 3\nvalue = [0, 3, 0, 0, 0]\nclass = low (1)", fillcolor="#7be539"] ;
456 -> 457 ;
458 [label="Previous Scores <= 41.5\ngini = 0.444\nsamples = 3\nvalue = [0, 1, 2, 0, 0]\nclass = good (2)", fillcolor="#9cf2e2"] ;
456 -> 458 ;
459 [label="gini = 0.0\nsamples = 1\nvalue = [0, 1, 0, 0, 0]\nclass = low (1)", fillcolor="#7be539"] ;
458 -> 459 ;
460 [label="gini = 0.0\nsamples = 2\nvalue = [0, 0, 2, 0, 0]\nclass = good (2)", fillcolor="#39e5c5"] ;
458 -> 460 ;
461 [label="gini = 0.0\nsamples = 3\nvalue = [0, 3, 0, 0, 0]\nclass = low (1)", fillcolor="#7be539"] ;
445 -> 461 ;
462 [label="Sleep Hours <= 6.5\ngini = 0.444\nsamples = 9\nvalue = [0, 6, 3, 0, 0]\nclass = low (1)", fillcolor="#bdf29c"] ;
438 -> 462 ;
463 [label="gini = 0.0\nsamples = 5\nvalue = [0, 5, 0, 0, 0]\nclass = low (1)", fillcolor="#7be539"] ;
462 -> 463 ;
464 [label="Previous Scores <= 40.5\ngini = 0.375\nsamples = 4\nvalue = [0, 1, 3, 0, 0]\nclass = good (2)", fillcolor="#7beed8"] ;
462 -> 464 ;
465 [label="gini = 0.0\nsamples = 1\nvalue = [0, 1, 0, 0, 0]\nclass = low (1)", fillcolor="#7be539"] ;
464 -> 465 ;
466 [label="gini = 0.0\nsamples = 3\nvalue = [0, 0, 3, 0, 0]\nclass = good (2)", fillcolor="#39e5c5"] ;
464 -> 466 ;
467 [label="Hours Studied <= 8.5\ngini = 0.471\nsamples = 92\nvalue = [0, 57, 35, 0, 0]\nclass = low (1)", fillcolor="#ccf5b3"] ;
437 -> 467 ;
468 [label="Sleep Hours <= 7.5\ngini = 0.268\nsamples = 44\nvalue = [0, 37, 7, 0, 0]\nclass = low (1)", fillcolor="#94ea5e"] ;
467 -> 468 ;
469 [label="Sleep Hours <= 5.5\ngini = 0.064\nsamples = 30\nvalue = [0, 29, 1, 0, 0]\nclass = low (1)", fillcolor="#80e640"] ;
468 -> 469 ;
470 [label="gini = 0.0\nsamples = 15\nvalue = [0, 15, 0, 0, 0]\nclass = low (1)", fillcolor="#7be539"] ;
469 -> 470 ;
471 [label="Sample Question Papers Practiced <= 3.5\ngini = 0.124\nsamples = 15\nvalue = [0, 14, 1, 0, 0]\nclass = low (1)", fillcolor="#84e747"] ;
469 -> 471 ;
472 [label="gini = 0.0\nsamples = 7\nvalue = [0, 7, 0, 0, 0]\nclass = low (1)", fillcolor="#7be539"] ;
471 -> 472 ;
473 [label="Sample Question Papers Practiced <= 4.5\ngini = 0.219\nsamples = 8\nvalue = [0, 7, 1, 0, 0]\nclass = low (1)", fillcolor="#8ee955"] ;
471 -> 473 ;
474 [label="Extracurricular Activities <= 0.5\ngini = 0.444\nsamples = 3\nvalue = [0, 2, 1, 0, 0]\nclass = low (1)", fillcolor="#bdf29c"] ;
473 -> 474 ;
475 [label="gini = 0.0\nsamples = 2\nvalue = [0, 2, 0, 0, 0]\nclass = low (1)", fillcolor="#7be539"] ;
474 -> 475 ;
476 [label="gini = 0.0\nsamples = 1\nvalue = [0, 0, 1, 0, 0]\nclass = good (2)", fillcolor="#39e5c5"] ;
474 -> 476 ;
477 [label="gini = 0.0\nsamples = 5\nvalue = [0, 5, 0, 0, 0]\nclass = low (1)", fillcolor="#7be539"] ;
473 -> 477 ;
478 [label="Sample Question Papers Practiced <= 8.0\ngini = 0.49\nsamples = 14\nvalue = [0, 8, 6, 0, 0]\nclass = low (1)", fillcolor="#def8ce"] ;
468 -> 478 ;
479 [label="Sleep Hours <= 8.5\ngini = 0.444\nsamples = 12\nvalue = [0, 8, 4, 0, 0]\nclass = low (1)", fillcolor="#bdf29c"] ;
478 -> 479 ;
480 [label="Sample Question Papers Practiced <= 1.0\ngini = 0.5\nsamples = 6\nvalue = [0, 3, 3, 0, 0]\nclass = low (1)", fillcolor="#ffffff"] ;
479 -> 480 ;
481 [label="gini = 0.0\nsamples = 1\nvalue = [0, 1, 0, 0, 0]\nclass = low (1)", fillcolor="#7be539"] ;
480 -> 481 ;
482 [label="Extracurricular Activities <= 0.5\ngini = 0.48\nsamples = 5\nvalue = [0, 2, 3, 0, 0]\nclass = good (2)", fillcolor="#bdf6ec"] ;
480 -> 482 ;
483 [label="Sample Question Papers Practiced <= 3.0\ngini = 0.375\nsamples = 4\nvalue = [0, 1, 3, 0, 0]\nclass = good (2)", fillcolor="#7beed8"] ;
482 -> 483 ;
484 [label="gini = 0.0\nsamples = 1\nvalue = [0, 0, 1, 0, 0]\nclass = good (2)", fillcolor="#39e5c5"] ;
483 -> 484 ;
485 [label="Sample Question Papers Practiced <= 5.5\ngini = 0.444\nsamples = 3\nvalue = [0, 1, 2, 0, 0]\nclass = good (2)", fillcolor="#9cf2e2"] ;
483 -> 485 ;
486 [label="gini = 0.5\nsamples = 2\nvalue = [0, 1, 1, 0, 0]\nclass = low (1)", fillcolor="#ffffff"] ;
485 -> 486 ;
487 [label="gini = 0.0\nsamples = 1\nvalue = [0, 0, 1, 0, 0]\nclass = good (2)", fillcolor="#39e5c5"] ;
485 -> 487 ;
488 [label="gini = 0.0\nsamples = 1\nvalue = [0, 1, 0, 0, 0]\nclass = low (1)", fillcolor="#7be539"] ;
482 -> 488 ;
489 [label="Previous Scores <= 44.5\ngini = 0.278\nsamples = 6\nvalue = [0, 5, 1, 0, 0]\nclass = low (1)", fillcolor="#95ea61"] ;
479 -> 489 ;
490 [label="Extracurricular Activities <= 0.5\ngini = 0.375\nsamples = 4\nvalue = [0, 3, 1, 0, 0]\nclass = low (1)", fillcolor="#a7ee7b"] ;
489 -> 490 ;
491 [label="gini = 0.0\nsamples = 1\nvalue = [0, 1, 0, 0, 0]\nclass = low (1)", fillcolor="#7be539"] ;
490 -> 491 ;
492 [label="Sample Question Papers Practiced <= 2.5\ngini = 0.444\nsamples = 3\nvalue = [0, 2, 1, 0, 0]\nclass = low (1)", fillcolor="#bdf29c"] ;
490 -> 492 ;
493 [label="gini = 0.0\nsamples = 1\nvalue = [0, 1, 0, 0, 0]\nclass = low (1)", fillcolor="#7be539"] ;
492 -> 493 ;
494 [label="Sample Question Papers Practiced <= 3.5\ngini = 0.5\nsamples = 2\nvalue = [0, 1, 1, 0, 0]\nclass = low (1)", fillcolor="#ffffff"] ;
492 -> 494 ;
495 [label="gini = 0.0\nsamples = 1\nvalue = [0, 0, 1, 0, 0]\nclass = good (2)", fillcolor="#39e5c5"] ;
494 -> 495 ;
496 [label="gini = 0.0\nsamples = 1\nvalue = [0, 1, 0, 0, 0]\nclass = low (1)", fillcolor="#7be539"] ;
494 -> 496 ;
497 [label="gini = 0.0\nsamples = 2\nvalue = [0, 2, 0, 0, 0]\nclass = low (1)", fillcolor="#7be539"] ;
489 -> 497 ;
498 [label="gini = 0.0\nsamples = 2\nvalue = [0, 0, 2, 0, 0]\nclass = good (2)", fillcolor="#39e5c5"] ;
478 -> 498 ;
499 [label="Previous Scores <= 44.5\ngini = 0.486\nsamples = 48\nvalue = [0, 20, 28, 0, 0]\nclass = good (2)", fillcolor="#c6f8ee"] ;
467 -> 499 ;
500 [label="Extracurricular Activities <= 0.5\ngini = 0.498\nsamples = 36\nvalue = [0, 19, 17, 0, 0]\nclass = low (1)", fillcolor="#f1fcea"] ;
499 -> 500 ;
501 [label="Sample Question Papers Practiced <= 6.5\ngini = 0.463\nsamples = 22\nvalue = [0, 14, 8, 0, 0]\nclass = low (1)", fillcolor="#c6f4aa"] ;
500 -> 501 ;
502 [label="Sleep Hours <= 8.5\ngini = 0.355\nsamples = 13\nvalue = [0, 10, 3, 0, 0]\nclass = low (1)", fillcolor="#a3ed74"] ;
501 -> 502 ;
503 [label="Sample Question Papers Practiced <= 0.5\ngini = 0.278\nsamples = 12\nvalue = [0, 10, 2, 0, 0]\nclass = low (1)", fillcolor="#95ea61"] ;
502 -> 503 ;
504 [label="gini = 0.5\nsamples = 2\nvalue = [0, 1, 1, 0, 0]\nclass = low (1)", fillcolor="#ffffff"] ;
503 -> 504 ;
505 [label="Sample Question Papers Practiced <= 4.5\ngini = 0.18\nsamples = 10\nvalue = [0, 9, 1, 0, 0]\nclass = low (1)", fillcolor="#8ae84f"] ;
503 -> 505 ;
506 [label="gini = 0.0\nsamples = 7\nvalue = [0, 7, 0, 0, 0]\nclass = low (1)", fillcolor="#7be539"] ;
505 -> 506 ;
507 [label="Sample Question Papers Practiced <= 5.5\ngini = 0.444\nsamples = 3\nvalue = [0, 2, 1, 0, 0]\nclass = low (1)", fillcolor="#bdf29c"] ;
505 -> 507 ;
508 [label="gini = 0.0\nsamples = 1\nvalue = [0, 0, 1, 0, 0]\nclass = good (2)", fillcolor="#39e5c5"] ;
507 -> 508 ;
509 [label="gini = 0.0\nsamples = 2\nvalue = [0, 2, 0, 0, 0]\nclass = low (1)", fillcolor="#7be539"] ;
507 -> 509 ;
510 [label="gini = 0.0\nsamples = 1\nvalue = [0, 0, 1, 0, 0]\nclass = good (2)", fillcolor="#39e5c5"] ;
502 -> 510 ;
511 [label="Sleep Hours <= 7.5\ngini = 0.494\nsamples = 9\nvalue = [0, 4, 5, 0, 0]\nclass = good (2)", fillcolor="#d7faf3"] ;
501 -> 511 ;
512 [label="Sample Question Papers Practiced <= 8.5\ngini = 0.5\nsamples = 8\nvalue = [0, 4, 4, 0, 0]\nclass = low (1)", fillcolor="#ffffff"] ;
511 -> 512 ;
513 [label="Sleep Hours <= 6.0\ngini = 0.48\nsamples = 5\nvalue = [0, 2, 3, 0, 0]\nclass = good (2)", fillcolor="#bdf6ec"] ;
512 -> 513 ;
514 [label="Sleep Hours <= 4.5\ngini = 0.375\nsamples = 4\nvalue = [0, 1, 3, 0, 0]\nclass = good (2)", fillcolor="#7beed8"] ;
513 -> 514 ;
515 [label="Previous Scores <= 43.5\ngini = 0.5\nsamples = 2\nvalue = [0, 1, 1, 0, 0]\nclass = low (1)", fillcolor="#ffffff"] ;
514 -> 515 ;
516 [label="gini = 0.0\nsamples = 1\nvalue = [0, 0, 1, 0, 0]\nclass = good (2)", fillcolor="#39e5c5"] ;
515 -> 516 ;
517 [label="gini = 0.0\nsamples = 1\nvalue = [0, 1, 0, 0, 0]\nclass = low (1)", fillcolor="#7be539"] ;
515 -> 517 ;
518 [label="gini = 0.0\nsamples = 2\nvalue = [0, 0, 2, 0, 0]\nclass = good (2)", fillcolor="#39e5c5"] ;
514 -> 518 ;
519 [label="gini = 0.0\nsamples = 1\nvalue = [0, 1, 0, 0, 0]\nclass = low (1)", fillcolor="#7be539"] ;
513 -> 519 ;
520 [label="Sleep Hours <= 6.0\ngini = 0.444\nsamples = 3\nvalue = [0, 2, 1, 0, 0]\nclass = low (1)", fillcolor="#bdf29c"] ;
512 -> 520 ;
521 [label="gini = 0.0\nsamples = 1\nvalue = [0, 1, 0, 0, 0]\nclass = low (1)", fillcolor="#7be539"] ;
520 -> 521 ;
522 [label="Previous Scores <= 43.5\ngini = 0.5\nsamples = 2\nvalue = [0, 1, 1, 0, 0]\nclass = low (1)", fillcolor="#ffffff"] ;
520 -> 522 ;
523 [label="gini = 0.0\nsamples = 1\nvalue = [0, 0, 1, 0, 0]\nclass = good (2)", fillcolor="#39e5c5"] ;
522 -> 523 ;
524 [label="gini = 0.0\nsamples = 1\nvalue = [0, 1, 0, 0, 0]\nclass = low (1)", fillcolor="#7be539"] ;
522 -> 524 ;
525 [label="gini = 0.0\nsamples = 1\nvalue = [0, 0, 1, 0, 0]\nclass = good (2)", fillcolor="#39e5c5"] ;
511 -> 525 ;
526 [label="Sleep Hours <= 8.5\ngini = 0.459\nsamples = 14\nvalue = [0, 5, 9, 0, 0]\nclass = good (2)", fillcolor="#a7f3e5"] ;
500 -> 526 ;
527 [label="Previous Scores <= 43.5\ngini = 0.397\nsamples = 11\nvalue = [0, 3, 8, 0, 0]\nclass = good (2)", fillcolor="#83efdb"] ;
526 -> 527 ;
528 [label="Sleep Hours <= 7.0\ngini = 0.245\nsamples = 7\nvalue = [0, 1, 6, 0, 0]\nclass = good (2)", fillcolor="#5ae9cf"] ;
527 -> 528 ;
529 [label="Sample Question Papers Practiced <= 7.0\ngini = 0.444\nsamples = 3\nvalue = [0, 1, 2, 0, 0]\nclass = good (2)", fillcolor="#9cf2e2"] ;
528 -> 529 ;
530 [label="gini = 0.5\nsamples = 2\nvalue = [0, 1, 1, 0, 0]\nclass = low (1)", fillcolor="#ffffff"] ;
529 -> 530 ;
531 [label="gini = 0.0\nsamples = 1\nvalue = [0, 0, 1, 0, 0]\nclass = good (2)", fillcolor="#39e5c5"] ;
529 -> 531 ;
532 [label="gini = 0.0\nsamples = 4\nvalue = [0, 0, 4, 0, 0]\nclass = good (2)", fillcolor="#39e5c5"] ;
528 -> 532 ;
533 [label="Sleep Hours <= 6.5\ngini = 0.5\nsamples = 4\nvalue = [0, 2, 2, 0, 0]\nclass = low (1)", fillcolor="#ffffff"] ;
527 -> 533 ;
534 [label="Sample Question Papers Practiced <= 7.0\ngini = 0.444\nsamples = 3\nvalue = [0, 1, 2, 0, 0]\nclass = good (2)", fillcolor="#9cf2e2"] ;
533 -> 534 ;
535 [label="gini = 0.0\nsamples = 2\nvalue = [0, 0, 2, 0, 0]\nclass = good (2)", fillcolor="#39e5c5"] ;
534 -> 535 ;
536 [label="gini = 0.0\nsamples = 1\nvalue = [0, 1, 0, 0, 0]\nclass = low (1)", fillcolor="#7be539"] ;
534 -> 536 ;
537 [label="gini = 0.0\nsamples = 1\nvalue = [0, 1, 0, 0, 0]\nclass = low (1)", fillcolor="#7be539"] ;
533 -> 537 ;
538 [label="Sample Question Papers Practiced <= 6.5\ngini = 0.444\nsamples = 3\nvalue = [0, 2, 1, 0, 0]\nclass = low (1)", fillcolor="#bdf29c"] ;
526 -> 538 ;
539 [label="gini = 0.0\nsamples = 2\nvalue = [0, 2, 0, 0, 0]\nclass = low (1)", fillcolor="#7be539"] ;
538 -> 539 ;
540 [label="gini = 0.0\nsamples = 1\nvalue = [0, 0, 1, 0, 0]\nclass = good (2)", fillcolor="#39e5c5"] ;
538 -> 540 ;
541 [label="Sleep Hours <= 8.5\ngini = 0.153\nsamples = 12\nvalue = [0, 1, 11, 0, 0]\nclass = good (2)", fillcolor="#4be7ca"] ;
499 -> 541 ;
542 [label="gini = 0.0\nsamples = 11\nvalue = [0, 0, 11, 0, 0]\nclass = good (2)", fillcolor="#39e5c5"] ;
541 -> 542 ;
543 [label="gini = 0.0\nsamples = 1\nvalue = [0, 1, 0, 0, 0]\nclass = low (1)", fillcolor="#7be539"] ;
541 -> 543 ;
544 [label="Previous Scores <= 48.5\ngini = 0.176\nsamples = 277\nvalue = [0, 27, 250, 0, 0]\nclass = good (2)", fillcolor="#4ee8cb"] ;
436 -> 544 ;
545 [label="Hours Studied <= 8.5\ngini = 0.394\nsamples = 89\nvalue = [0, 24, 65, 0, 0]\nclass = good (2)", fillcolor="#82efda"] ;
544 -> 545 ;
546 [label="Extracurricular Activities <= 0.5\ngini = 0.494\nsamples = 47\nvalue = [0, 21, 26, 0, 0]\nclass = good (2)", fillcolor="#d9faf4"] ;
545 -> 546 ;
547 [label="Sample Question Papers Practiced <= 0.5\ngini = 0.492\nsamples = 32\nvalue = [0, 18, 14, 0, 0]\nclass = low (1)", fillcolor="#e2f9d3"] ;
546 -> 547 ;
548 [label="Sleep Hours <= 7.5\ngini = 0.219\nsamples = 8\nvalue = [0, 7, 1, 0, 0]\nclass = low (1)", fillcolor="#8ee955"] ;
547 -> 548 ;
549 [label="gini = 0.0\nsamples = 5\nvalue = [0, 5, 0, 0, 0]\nclass = low (1)", fillcolor="#7be539"] ;
548 -> 549 ;
550 [label="Previous Scores <= 46.5\ngini = 0.444\nsamples = 3\nvalue = [0, 2, 1, 0, 0]\nclass = low (1)", fillcolor="#bdf29c"] ;
548 -> 550 ;
551 [label="gini = 0.0\nsamples = 1\nvalue = [0, 0, 1, 0, 0]\nclass = good (2)", fillcolor="#39e5c5"] ;
550 -> 551 ;
552 [label="gini = 0.0\nsamples = 2\nvalue = [0, 2, 0, 0, 0]\nclass = low (1)", fillcolor="#7be539"] ;
550 -> 552 ;
553 [label="Sample Question Papers Practiced <= 3.5\ngini = 0.497\nsamples = 24\nvalue = [0, 11, 13, 0, 0]\nclass = good (2)", fillcolor="#e1fbf6"] ;
547 -> 553 ;
554 [label="gini = 0.0\nsamples = 6\nvalue = [0, 0, 6, 0, 0]\nclass = good (2)", fillcolor="#39e5c5"] ;
553 -> 554 ;
555 [label="Sleep Hours <= 5.5\ngini = 0.475\nsamples = 18\nvalue = [0, 11, 7, 0, 0]\nclass = low (1)", fillcolor="#cff6b7"] ;
553 -> 555 ;
556 [label="Sample Question Papers Practiced <= 5.5\ngini = 0.278\nsamples = 6\nvalue = [0, 5, 1, 0, 0]\nclass = low (1)", fillcolor="#95ea61"] ;
555 -> 556 ;
557 [label="Previous Scores <= 47.5\ngini = 0.5\nsamples = 2\nvalue = [0, 1, 1, 0, 0]\nclass = low (1)", fillcolor="#ffffff"] ;
556 -> 557 ;
558 [label="gini = 0.0\nsamples = 1\nvalue = [0, 0, 1, 0, 0]\nclass = good (2)", fillcolor="#39e5c5"] ;
557 -> 558 ;
559 [label="gini = 0.0\nsamples = 1\nvalue = [0, 1, 0, 0, 0]\nclass = low (1)", fillcolor="#7be539"] ;
557 -> 559 ;
560 [label="gini = 0.0\nsamples = 4\nvalue = [0, 4, 0, 0, 0]\nclass = low (1)", fillcolor="#7be539"] ;
556 -> 560 ;
561 [label="Previous Scores <= 46.5\ngini = 0.5\nsamples = 12\nvalue = [0, 6, 6, 0, 0]\nclass = low (1)", fillcolor="#ffffff"] ;
555 -> 561 ;
562 [label="Sleep Hours <= 8.5\ngini = 0.375\nsamples = 4\nvalue = [0, 3, 1, 0, 0]\nclass = low (1)", fillcolor="#a7ee7b"] ;
561 -> 562 ;
563 [label="gini = 0.0\nsamples = 2\nvalue = [0, 2, 0, 0, 0]\nclass = low (1)", fillcolor="#7be539"] ;
562 -> 563 ;
564 [label="gini = 0.5\nsamples = 2\nvalue = [0, 1, 1, 0, 0]\nclass = low (1)", fillcolor="#ffffff"] ;
562 -> 564 ;
565 [label="Sleep Hours <= 6.5\ngini = 0.469\nsamples = 8\nvalue = [0, 3, 5, 0, 0]\nclass = good (2)", fillcolor="#b0f5e8"] ;
561 -> 565 ;
566 [label="gini = 0.0\nsamples = 2\nvalue = [0, 0, 2, 0, 0]\nclass = good (2)", fillcolor="#39e5c5"] ;
565 -> 566 ;
567 [label="Sample Question Papers Practiced <= 7.5\ngini = 0.5\nsamples = 6\nvalue = [0, 3, 3, 0, 0]\nclass = low (1)", fillcolor="#ffffff"] ;
565 -> 567 ;
568 [label="Sleep Hours <= 8.5\ngini = 0.375\nsamples = 4\nvalue = [0, 3, 1, 0, 0]\nclass = low (1)", fillcolor="#a7ee7b"] ;
567 -> 568 ;
569 [label="gini = 0.0\nsamples = 2\nvalue = [0, 2, 0, 0, 0]\nclass = low (1)", fillcolor="#7be539"] ;
568 -> 569 ;
570 [label="Sample Question Papers Practiced <= 5.0\ngini = 0.5\nsamples = 2\nvalue = [0, 1, 1, 0, 0]\nclass = low (1)", fillcolor="#ffffff"] ;
568 -> 570 ;
571 [label="gini = 0.0\nsamples = 1\nvalue = [0, 1, 0, 0, 0]\nclass = low (1)", fillcolor="#7be539"] ;
570 -> 571 ;
572 [label="gini = 0.0\nsamples = 1\nvalue = [0, 0, 1, 0, 0]\nclass = good (2)", fillcolor="#39e5c5"] ;
570 -> 572 ;
573 [label="gini = 0.0\nsamples = 2\nvalue = [0, 0, 2, 0, 0]\nclass = good (2)", fillcolor="#39e5c5"] ;
567 -> 573 ;
574 [label="Sleep Hours <= 8.5\ngini = 0.32\nsamples = 15\nvalue = [0, 3, 12, 0, 0]\nclass = good (2)", fillcolor="#6aecd4"] ;
546 -> 574 ;
575 [label="Sample Question Papers Practiced <= 2.0\ngini = 0.245\nsamples = 14\nvalue = [0, 2, 12, 0, 0]\nclass = good (2)", fillcolor="#5ae9cf"] ;
574 -> 575 ;
576 [label="Sample Question Papers Practiced <= 0.5\ngini = 0.5\nsamples = 2\nvalue = [0, 1, 1, 0, 0]\nclass = low (1)", fillcolor="#ffffff"] ;
575 -> 576 ;
577 [label="gini = 0.0\nsamples = 1\nvalue = [0, 0, 1, 0, 0]\nclass = good (2)", fillcolor="#39e5c5"] ;
576 -> 577 ;
578 [label="gini = 0.0\nsamples = 1\nvalue = [0, 1, 0, 0, 0]\nclass = low (1)", fillcolor="#7be539"] ;
576 -> 578 ;
579 [label="Sample Question Papers Practiced <= 7.5\ngini = 0.153\nsamples = 12\nvalue = [0, 1, 11, 0, 0]\nclass = good (2)", fillcolor="#4be7ca"] ;
575 -> 579 ;
580 [label="gini = 0.0\nsamples = 6\nvalue = [0, 0, 6, 0, 0]\nclass = good (2)", fillcolor="#39e5c5"] ;
579 -> 580 ;
581 [label="Sample Question Papers Practiced <= 8.5\ngini = 0.278\nsamples = 6\nvalue = [0, 1, 5, 0, 0]\nclass = good (2)", fillcolor="#61ead1"] ;
579 -> 581 ;
582 [label="Previous Scores <= 46.5\ngini = 0.375\nsamples = 4\nvalue = [0, 1, 3, 0, 0]\nclass = good (2)", fillcolor="#7beed8"] ;
581 -> 582 ;
583 [label="gini = 0.0\nsamples = 1\nvalue = [0, 0, 1, 0, 0]\nclass = good (2)", fillcolor="#39e5c5"] ;
582 -> 583 ;
584 [label="Sleep Hours <= 5.0\ngini = 0.444\nsamples = 3\nvalue = [0, 1, 2, 0, 0]\nclass = good (2)", fillcolor="#9cf2e2"] ;
582 -> 584 ;
585 [label="gini = 0.0\nsamples = 1\nvalue = [0, 0, 1, 0, 0]\nclass = good (2)", fillcolor="#39e5c5"] ;
584 -> 585 ;
586 [label="gini = 0.5\nsamples = 2\nvalue = [0, 1, 1, 0, 0]\nclass = low (1)", fillcolor="#ffffff"] ;
584 -> 586 ;
587 [label="gini = 0.0\nsamples = 2\nvalue = [0, 0, 2, 0, 0]\nclass = good (2)", fillcolor="#39e5c5"] ;
581 -> 587 ;
588 [label="gini = 0.0\nsamples = 1\nvalue = [0, 1, 0, 0, 0]\nclass = low (1)", fillcolor="#7be539"] ;
574 -> 588 ;
589 [label="Sleep Hours <= 4.5\ngini = 0.133\nsamples = 42\nvalue = [0, 3, 39, 0, 0]\nclass = good (2)", fillcolor="#48e7c9"] ;
545 -> 589 ;
590 [label="Sample Question Papers Practiced <= 3.0\ngini = 0.444\nsamples = 6\nvalue = [0, 2, 4, 0, 0]\nclass = good (2)", fillcolor="#9cf2e2"] ;
589 -> 590 ;
591 [label="gini = 0.0\nsamples = 4\nvalue = [0, 0, 4, 0, 0]\nclass = good (2)", fillcolor="#39e5c5"] ;
590 -> 591 ;
592 [label="gini = 0.0\nsamples = 2\nvalue = [0, 2, 0, 0, 0]\nclass = low (1)", fillcolor="#7be539"] ;
590 -> 592 ;
593 [label="Previous Scores <= 46.5\ngini = 0.054\nsamples = 36\nvalue = [0, 1, 35, 0, 0]\nclass = good (2)", fillcolor="#3fe6c7"] ;
589 -> 593 ;
594 [label="Sample Question Papers Practiced <= 4.0\ngini = 0.165\nsamples = 11\nvalue = [0, 1, 10, 0, 0]\nclass = good (2)", fillcolor="#4de8cb"] ;
593 -> 594 ;
595 [label="Sleep Hours <= 7.5\ngini = 0.444\nsamples = 3\nvalue = [0, 1, 2, 0, 0]\nclass = good (2)", fillcolor="#9cf2e2"] ;
594 -> 595 ;
596 [label="gini = 0.0\nsamples = 2\nvalue = [0, 0, 2, 0, 0]\nclass = good (2)", fillcolor="#39e5c5"] ;
595 -> 596 ;
597 [label="gini = 0.0\nsamples = 1\nvalue = [0, 1, 0, 0, 0]\nclass = low (1)", fillcolor="#7be539"] ;
595 -> 597 ;
598 [label="gini = 0.0\nsamples = 8\nvalue = [0, 0, 8, 0, 0]\nclass = good (2)", fillcolor="#39e5c5"] ;
594 -> 598 ;
599 [label="gini = 0.0\nsamples = 25\nvalue = [0, 0, 25, 0, 0]\nclass = good (2)", fillcolor="#39e5c5"] ;
593 -> 599 ;
600 [label="Sample Question Papers Practiced <= 0.5\ngini = 0.031\nsamples = 188\nvalue = [0, 3, 185, 0, 0]\nclass = good (2)", fillcolor="#3ce5c6"] ;
544 -> 600 ;
601 [label="Previous Scores <= 49.5\ngini = 0.188\nsamples = 19\nvalue = [0, 2, 17, 0, 0]\nclass = good (2)", fillcolor="#50e8cc"] ;
600 -> 601 ;
602 [label="Sleep Hours <= 8.5\ngini = 0.48\nsamples = 5\nvalue = [0, 2, 3, 0, 0]\nclass = good (2)", fillcolor="#bdf6ec"] ;
601 -> 602 ;
603 [label="Sleep Hours <= 4.5\ngini = 0.375\nsamples = 4\nvalue = [0, 1, 3, 0, 0]\nclass = good (2)", fillcolor="#7beed8"] ;
602 -> 603 ;
604 [label="gini = 0.5\nsamples = 2\nvalue = [0, 1, 1, 0, 0]\nclass = low (1)", fillcolor="#ffffff"] ;
603 -> 604 ;
605 [label="gini = 0.0\nsamples = 2\nvalue = [0, 0, 2, 0, 0]\nclass = good (2)", fillcolor="#39e5c5"] ;
603 -> 605 ;
606 [label="gini = 0.0\nsamples = 1\nvalue = [0, 1, 0, 0, 0]\nclass = low (1)", fillcolor="#7be539"] ;
602 -> 606 ;
607 [label="gini = 0.0\nsamples = 14\nvalue = [0, 0, 14, 0, 0]\nclass = good (2)", fillcolor="#39e5c5"] ;
601 -> 607 ;
608 [label="Sleep Hours <= 4.5\ngini = 0.012\nsamples = 169\nvalue = [0, 1, 168, 0, 0]\nclass = good (2)", fillcolor="#3ae5c5"] ;
600 -> 608 ;
609 [label="Previous Scores <= 51.5\ngini = 0.08\nsamples = 24\nvalue = [0, 1, 23, 0, 0]\nclass = good (2)", fillcolor="#42e6c8"] ;
608 -> 609 ;
610 [label="Sample Question Papers Practiced <= 6.5\ngini = 0.32\nsamples = 5\nvalue = [0, 1, 4, 0, 0]\nclass = good (2)", fillcolor="#6aecd4"] ;
609 -> 610 ;
611 [label="Previous Scores <= 50.0\ngini = 0.5\nsamples = 2\nvalue = [0, 1, 1, 0, 0]\nclass = low (1)", fillcolor="#ffffff"] ;
610 -> 611 ;
612 [label="gini = 0.0\nsamples = 1\nvalue = [0, 0, 1, 0, 0]\nclass = good (2)", fillcolor="#39e5c5"] ;
611 -> 612 ;
613 [label="gini = 0.0\nsamples = 1\nvalue = [0, 1, 0, 0, 0]\nclass = low (1)", fillcolor="#7be539"] ;
611 -> 613 ;
614 [label="gini = 0.0\nsamples = 3\nvalue = [0, 0, 3, 0, 0]\nclass = good (2)", fillcolor="#39e5c5"] ;
610 -> 614 ;
615 [label="gini = 0.0\nsamples = 19\nvalue = [0, 0, 19, 0, 0]\nclass = good (2)", fillcolor="#39e5c5"] ;
609 -> 615 ;
616 [label="gini = 0.0\nsamples = 145\nvalue = [0, 0, 145, 0, 0]\nclass = good (2)", fillcolor="#39e5c5"] ;
608 -> 616 ;
617 [label="Hours Studied <= 2.5\ngini = 0.459\nsamples = 2377\nvalue = [0, 436, 1671, 270, 0]\nclass = good (2)", fillcolor="#81eeda"] ;
1 -> 617 ;
618 [label="Previous Scores <= 65.5\ngini = 0.49\nsamples = 536\nvalue = [0, 306, 230, 0, 0]\nclass = low (1)", fillcolor="#def9ce"] ;
617 -> 618 ;
619 [label="Previous Scores <= 62.5\ngini = 0.224\nsamples = 326\nvalue = [0, 284, 42, 0, 0]\nclass = low (1)", fillcolor="#8fe956"] ;
618 -> 619 ;
620 [label="Previous Scores <= 59.5\ngini = 0.064\nsamples = 241\nvalue = [0, 233, 8, 0, 0]\nclass = low (1)", fillcolor="#80e640"] ;
619 -> 620 ;
621 [label="gini = 0.0\nsamples = 144\nvalue = [0, 144, 0, 0, 0]\nclass = low (1)", fillcolor="#7be539"] ;
620 -> 621 ;
622 [label="Sample Question Papers Practiced <= 8.5\ngini = 0.151\nsamples = 97\nvalue = [0, 89, 8, 0, 0]\nclass = low (1)", fillcolor="#87e74b"] ;
620 -> 622 ;
623 [label="Hours Studied <= 1.5\ngini = 0.11\nsamples = 86\nvalue = [0, 81, 5, 0, 0]\nclass = low (1)", fillcolor="#83e745"] ;
622 -> 623 ;
624 [label="gini = 0.0\nsamples = 43\nvalue = [0, 43, 0, 0, 0]\nclass = low (1)", fillcolor="#7be539"] ;
623 -> 624 ;
625 [label="Sample Question Papers Practiced <= 0.5\ngini = 0.206\nsamples = 43\nvalue = [0, 38, 5, 0, 0]\nclass = low (1)", fillcolor="#8ce853"] ;
623 -> 625 ;
626 [label="Previous Scores <= 61.5\ngini = 0.408\nsamples = 7\nvalue = [0, 5, 2, 0, 0]\nclass = low (1)", fillcolor="#b0ef88"] ;
625 -> 626 ;
627 [label="Previous Scores <= 60.5\ngini = 0.278\nsamples = 6\nvalue = [0, 5, 1, 0, 0]\nclass = low (1)", fillcolor="#95ea61"] ;
626 -> 627 ;
628 [label="gini = 0.0\nsamples = 3\nvalue = [0, 3, 0, 0, 0]\nclass = low (1)", fillcolor="#7be539"] ;
627 -> 628 ;
629 [label="Sleep Hours <= 8.5\ngini = 0.444\nsamples = 3\nvalue = [0, 2, 1, 0, 0]\nclass = low (1)", fillcolor="#bdf29c"] ;
627 -> 629 ;
630 [label="gini = 0.0\nsamples = 1\nvalue = [0, 0, 1, 0, 0]\nclass = good (2)", fillcolor="#39e5c5"] ;
629 -> 630 ;
631 [label="gini = 0.0\nsamples = 2\nvalue = [0, 2, 0, 0, 0]\nclass = low (1)", fillcolor="#7be539"] ;
629 -> 631 ;
632 [label="gini = 0.0\nsamples = 1\nvalue = [0, 0, 1, 0, 0]\nclass = good (2)", fillcolor="#39e5c5"] ;
626 -> 632 ;
633 [label="Extracurricular Activities <= 0.5\ngini = 0.153\nsamples = 36\nvalue = [0, 33, 3, 0, 0]\nclass = low (1)", fillcolor="#87e74b"] ;
625 -> 633 ;
634 [label="gini = 0.0\nsamples = 18\nvalue = [0, 18, 0, 0, 0]\nclass = low (1)", fillcolor="#7be539"] ;
633 -> 634 ;
635 [label="Sleep Hours <= 5.5\ngini = 0.278\nsamples = 18\nvalue = [0, 15, 3, 0, 0]\nclass = low (1)", fillcolor="#95ea61"] ;
633 -> 635 ;
636 [label="gini = 0.0\nsamples = 7\nvalue = [0, 7, 0, 0, 0]\nclass = low (1)", fillcolor="#7be539"] ;
635 -> 636 ;
637 [label="Sleep Hours <= 6.5\ngini = 0.397\nsamples = 11\nvalue = [0, 8, 3, 0, 0]\nclass = low (1)", fillcolor="#acef83"] ;
635 -> 637 ;
638 [label="Sample Question Papers Practiced <= 6.5\ngini = 0.5\nsamples = 4\nvalue = [0, 2, 2, 0, 0]\nclass = low (1)", fillcolor="#ffffff"] ;
637 -> 638 ;
639 [label="Previous Scores <= 60.5\ngini = 0.444\nsamples = 3\nvalue = [0, 2, 1, 0, 0]\nclass = low (1)", fillcolor="#bdf29c"] ;
638 -> 639 ;
640 [label="gini = 0.0\nsamples = 1\nvalue = [0, 1, 0, 0, 0]\nclass = low (1)", fillcolor="#7be539"] ;
639 -> 640 ;
641 [label="Sample Question Papers Practiced <= 5.5\ngini = 0.5\nsamples = 2\nvalue = [0, 1, 1, 0, 0]\nclass = low (1)", fillcolor="#ffffff"] ;
639 -> 641 ;
642 [label="gini = 0.0\nsamples = 1\nvalue = [0, 0, 1, 0, 0]\nclass = good (2)", fillcolor="#39e5c5"] ;
641 -> 642 ;
643 [label="gini = 0.0\nsamples = 1\nvalue = [0, 1, 0, 0, 0]\nclass = low (1)", fillcolor="#7be539"] ;
641 -> 643 ;
644 [label="gini = 0.0\nsamples = 1\nvalue = [0, 0, 1, 0, 0]\nclass = good (2)", fillcolor="#39e5c5"] ;
638 -> 644 ;
645 [label="Sample Question Papers Practiced <= 5.0\ngini = 0.245\nsamples = 7\nvalue = [0, 6, 1, 0, 0]\nclass = low (1)", fillcolor="#91e95a"] ;
637 -> 645 ;
646 [label="Previous Scores <= 61.0\ngini = 0.32\nsamples = 5\nvalue = [0, 4, 1, 0, 0]\nclass = low (1)", fillcolor="#9cec6a"] ;
645 -> 646 ;
647 [label="Sample Question Papers Practiced <= 2.5\ngini = 0.375\nsamples = 4\nvalue = [0, 3, 1, 0, 0]\nclass = low (1)", fillcolor="#a7ee7b"] ;
646 -> 647 ;
648 [label="gini = 0.0\nsamples = 1\nvalue = [0, 1, 0, 0, 0]\nclass = low (1)", fillcolor="#7be539"] ;
647 -> 648 ;
649 [label="gini = 0.444\nsamples = 3\nvalue = [0, 2, 1, 0, 0]\nclass = low (1)", fillcolor="#bdf29c"] ;
647 -> 649 ;
650 [label="gini = 0.0\nsamples = 1\nvalue = [0, 1, 0, 0, 0]\nclass = low (1)", fillcolor="#7be539"] ;
646 -> 650 ;
651 [label="gini = 0.0\nsamples = 2\nvalue = [0, 2, 0, 0, 0]\nclass = low (1)", fillcolor="#7be539"] ;
645 -> 651 ;
652 [label="Extracurricular Activities <= 0.5\ngini = 0.397\nsamples = 11\nvalue = [0, 8, 3, 0, 0]\nclass = low (1)", fillcolor="#acef83"] ;
622 -> 652 ;
653 [label="gini = 0.0\nsamples = 6\nvalue = [0, 6, 0, 0, 0]\nclass = low (1)", fillcolor="#7be539"] ;
652 -> 653 ;
654 [label="Hours Studied <= 1.5\ngini = 0.48\nsamples = 5\nvalue = [0, 2, 3, 0, 0]\nclass = good (2)", fillcolor="#bdf6ec"] ;
652 -> 654 ;
655 [label="Previous Scores <= 61.5\ngini = 0.444\nsamples = 3\nvalue = [0, 2, 1, 0, 0]\nclass = low (1)", fillcolor="#bdf29c"] ;
654 -> 655 ;
656 [label="gini = 0.0\nsamples = 1\nvalue = [0, 1, 0, 0, 0]\nclass = low (1)", fillcolor="#7be539"] ;
655 -> 656 ;
657 [label="gini = 0.5\nsamples = 2\nvalue = [0, 1, 1, 0, 0]\nclass = low (1)", fillcolor="#ffffff"] ;
655 -> 657 ;
658 [label="gini = 0.0\nsamples = 2\nvalue = [0, 0, 2, 0, 0]\nclass = good (2)", fillcolor="#39e5c5"] ;
654 -> 658 ;
659 [label="Hours Studied <= 1.5\ngini = 0.48\nsamples = 85\nvalue = [0, 51, 34, 0, 0]\nclass = low (1)", fillcolor="#d3f6bd"] ;
619 -> 659 ;
660 [label="Sample Question Papers Practiced <= 5.5\ngini = 0.213\nsamples = 33\nvalue = [0, 29, 4, 0, 0]\nclass = low (1)", fillcolor="#8de954"] ;
659 -> 660 ;
661 [label="gini = 0.0\nsamples = 19\nvalue = [0, 19, 0, 0, 0]\nclass = low (1)", fillcolor="#7be539"] ;
660 -> 661 ;
662 [label="Previous Scores <= 63.5\ngini = 0.408\nsamples = 14\nvalue = [0, 10, 4, 0, 0]\nclass = low (1)", fillcolor="#b0ef88"] ;
660 -> 662 ;
663 [label="gini = 0.0\nsamples = 4\nvalue = [0, 4, 0, 0, 0]\nclass = low (1)", fillcolor="#7be539"] ;
662 -> 663 ;
664 [label="Sample Question Papers Practiced <= 6.5\ngini = 0.48\nsamples = 10\nvalue = [0, 6, 4, 0, 0]\nclass = low (1)", fillcolor="#d3f6bd"] ;
662 -> 664 ;
665 [label="gini = 0.0\nsamples = 1\nvalue = [0, 0, 1, 0, 0]\nclass = good (2)", fillcolor="#39e5c5"] ;
664 -> 665 ;
666 [label="Sleep Hours <= 5.5\ngini = 0.444\nsamples = 9\nvalue = [0, 6, 3, 0, 0]\nclass = low (1)", fillcolor="#bdf29c"] ;
664 -> 666 ;
667 [label="gini = 0.0\nsamples = 3\nvalue = [0, 3, 0, 0, 0]\nclass = low (1)", fillcolor="#7be539"] ;
666 -> 667 ;
668 [label="Sample Question Papers Practiced <= 8.5\ngini = 0.5\nsamples = 6\nvalue = [0, 3, 3, 0, 0]\nclass = low (1)", fillcolor="#ffffff"] ;
666 -> 668 ;
669 [label="Extracurricular Activities <= 0.5\ngini = 0.375\nsamples = 4\nvalue = [0, 3, 1, 0, 0]\nclass = low (1)", fillcolor="#a7ee7b"] ;
668 -> 669 ;
670 [label="Sleep Hours <= 6.5\ngini = 0.5\nsamples = 2\nvalue = [0, 1, 1, 0, 0]\nclass = low (1)", fillcolor="#ffffff"] ;
669 -> 670 ;
671 [label="gini = 0.0\nsamples = 1\nvalue = [0, 1, 0, 0, 0]\nclass = low (1)", fillcolor="#7be539"] ;
670 -> 671 ;
672 [label="gini = 0.0\nsamples = 1\nvalue = [0, 0, 1, 0, 0]\nclass = good (2)", fillcolor="#39e5c5"] ;
670 -> 672 ;
673 [label="gini = 0.0\nsamples = 2\nvalue = [0, 2, 0, 0, 0]\nclass = low (1)", fillcolor="#7be539"] ;
669 -> 673 ;
674 [label="gini = 0.0\nsamples = 2\nvalue = [0, 0, 2, 0, 0]\nclass = good (2)", fillcolor="#39e5c5"] ;
668 -> 674 ;
675 [label="Sample Question Papers Practiced <= 3.5\ngini = 0.488\nsamples = 52\nvalue = [0, 22, 30, 0, 0]\nclass = good (2)", fillcolor="#caf8f0"] ;
659 -> 675 ;
676 [label="Previous Scores <= 63.5\ngini = 0.48\nsamples = 25\nvalue = [0, 15, 10, 0, 0]\nclass = low (1)", fillcolor="#d3f6bd"] ;
675 -> 676 ;
677 [label="gini = 0.0\nsamples = 7\nvalue = [0, 7, 0, 0, 0]\nclass = low (1)", fillcolor="#7be539"] ;
676 -> 677 ;
678 [label="Sleep Hours <= 8.5\ngini = 0.494\nsamples = 18\nvalue = [0, 8, 10, 0, 0]\nclass = good (2)", fillcolor="#d7faf3"] ;
676 -> 678 ;
679 [label="Extracurricular Activities <= 0.5\ngini = 0.498\nsamples = 15\nvalue = [0, 8, 7, 0, 0]\nclass = low (1)", fillcolor="#eefce6"] ;
678 -> 679 ;
680 [label="Sample Question Papers Practiced <= 0.5\ngini = 0.42\nsamples = 10\nvalue = [0, 7, 3, 0, 0]\nclass = low (1)", fillcolor="#b4f08e"] ;
679 -> 680 ;
681 [label="gini = 0.0\nsamples = 4\nvalue = [0, 4, 0, 0, 0]\nclass = low (1)", fillcolor="#7be539"] ;
680 -> 681 ;
682 [label="Sleep Hours <= 4.5\ngini = 0.5\nsamples = 6\nvalue = [0, 3, 3, 0, 0]\nclass = low (1)", fillcolor="#ffffff"] ;
680 -> 682 ;
683 [label="gini = 0.0\nsamples = 1\nvalue = [0, 0, 1, 0, 0]\nclass = good (2)", fillcolor="#39e5c5"] ;
682 -> 683 ;
684 [label="Sleep Hours <= 5.5\ngini = 0.48\nsamples = 5\nvalue = [0, 3, 2, 0, 0]\nclass = low (1)", fillcolor="#d3f6bd"] ;
682 -> 684 ;
685 [label="gini = 0.0\nsamples = 2\nvalue = [0, 2, 0, 0, 0]\nclass = low (1)", fillcolor="#7be539"] ;
684 -> 685 ;
686 [label="Sleep Hours <= 6.5\ngini = 0.444\nsamples = 3\nvalue = [0, 1, 2, 0, 0]\nclass = good (2)", fillcolor="#9cf2e2"] ;
684 -> 686 ;
687 [label="gini = 0.0\nsamples = 2\nvalue = [0, 0, 2, 0, 0]\nclass = good (2)", fillcolor="#39e5c5"] ;
686 -> 687 ;
688 [label="gini = 0.0\nsamples = 1\nvalue = [0, 1, 0, 0, 0]\nclass = low (1)", fillcolor="#7be539"] ;
686 -> 688 ;
689 [label="Sleep Hours <= 5.5\ngini = 0.32\nsamples = 5\nvalue = [0, 1, 4, 0, 0]\nclass = good (2)", fillcolor="#6aecd4"] ;
679 -> 689 ;
690 [label="gini = 0.0\nsamples = 3\nvalue = [0, 0, 3, 0, 0]\nclass = good (2)", fillcolor="#39e5c5"] ;
689 -> 690 ;
691 [label="Previous Scores <= 64.5\ngini = 0.5\nsamples = 2\nvalue = [0, 1, 1, 0, 0]\nclass = low (1)", fillcolor="#ffffff"] ;
689 -> 691 ;
692 [label="gini = 0.0\nsamples = 1\nvalue = [0, 0, 1, 0, 0]\nclass = good (2)", fillcolor="#39e5c5"] ;
691 -> 692 ;
693 [label="gini = 0.0\nsamples = 1\nvalue = [0, 1, 0, 0, 0]\nclass = low (1)", fillcolor="#7be539"] ;
691 -> 693 ;
694 [label="gini = 0.0\nsamples = 3\nvalue = [0, 0, 3, 0, 0]\nclass = good (2)", fillcolor="#39e5c5"] ;
678 -> 694 ;
695 [label="Sleep Hours <= 7.5\ngini = 0.384\nsamples = 27\nvalue = [0, 7, 20, 0, 0]\nclass = good (2)", fillcolor="#7eeed9"] ;
675 -> 695 ;
696 [label="Sample Question Papers Practiced <= 6.5\ngini = 0.434\nsamples = 22\nvalue = [0, 7, 15, 0, 0]\nclass = good (2)", fillcolor="#95f1e0"] ;
695 -> 696 ;
697 [label="Sleep Hours <= 4.5\ngini = 0.486\nsamples = 12\nvalue = [0, 5, 7, 0, 0]\nclass = good (2)", fillcolor="#c6f8ee"] ;
696 -> 697 ;
698 [label="gini = 0.0\nsamples = 2\nvalue = [0, 0, 2, 0, 0]\nclass = good (2)", fillcolor="#39e5c5"] ;
697 -> 698 ;
699 [label="Previous Scores <= 63.5\ngini = 0.5\nsamples = 10\nvalue = [0, 5, 5, 0, 0]\nclass = low (1)", fillcolor="#ffffff"] ;
697 -> 699 ;
700 [label="Sample Question Papers Practiced <= 5.5\ngini = 0.444\nsamples = 3\nvalue = [0, 2, 1, 0, 0]\nclass = low (1)", fillcolor="#bdf29c"] ;
699 -> 700 ;
701 [label="gini = 0.0\nsamples = 2\nvalue = [0, 2, 0, 0, 0]\nclass = low (1)", fillcolor="#7be539"] ;
700 -> 701 ;
702 [label="gini = 0.0\nsamples = 1\nvalue = [0, 0, 1, 0, 0]\nclass = good (2)", fillcolor="#39e5c5"] ;
700 -> 702 ;
703 [label="Sleep Hours <= 6.5\ngini = 0.49\nsamples = 7\nvalue = [0, 3, 4, 0, 0]\nclass = good (2)", fillcolor="#cef8f0"] ;
699 -> 703 ;
704 [label="Sleep Hours <= 5.5\ngini = 0.444\nsamples = 6\nvalue = [0, 2, 4, 0, 0]\nclass = good (2)", fillcolor="#9cf2e2"] ;
703 -> 704 ;
705 [label="Previous Scores <= 64.5\ngini = 0.444\nsamples = 3\nvalue = [0, 2, 1, 0, 0]\nclass = low (1)", fillcolor="#bdf29c"] ;
704 -> 705 ;
706 [label="gini = 0.0\nsamples = 1\nvalue = [0, 0, 1, 0, 0]\nclass = good (2)", fillcolor="#39e5c5"] ;
705 -> 706 ;
707 [label="gini = 0.0\nsamples = 2\nvalue = [0, 2, 0, 0, 0]\nclass = low (1)", fillcolor="#7be539"] ;
705 -> 707 ;
708 [label="gini = 0.0\nsamples = 3\nvalue = [0, 0, 3, 0, 0]\nclass = good (2)", fillcolor="#39e5c5"] ;
704 -> 708 ;
709 [label="gini = 0.0\nsamples = 1\nvalue = [0, 1, 0, 0, 0]\nclass = low (1)", fillcolor="#7be539"] ;
703 -> 709 ;
710 [label="Previous Scores <= 63.5\ngini = 0.32\nsamples = 10\nvalue = [0, 2, 8, 0, 0]\nclass = good (2)", fillcolor="#6aecd4"] ;
696 -> 710 ;
711 [label="Sleep Hours <= 5.5\ngini = 0.48\nsamples = 5\nvalue = [0, 2, 3, 0, 0]\nclass = good (2)", fillcolor="#bdf6ec"] ;
710 -> 711 ;
712 [label="gini = 0.0\nsamples = 1\nvalue = [0, 1, 0, 0, 0]\nclass = low (1)", fillcolor="#7be539"] ;
711 -> 712 ;
713 [label="Sample Question Papers Practiced <= 8.5\ngini = 0.375\nsamples = 4\nvalue = [0, 1, 3, 0, 0]\nclass = good (2)", fillcolor="#7beed8"] ;
711 -> 713 ;
714 [label="gini = 0.0\nsamples = 2\nvalue = [0, 0, 2, 0, 0]\nclass = good (2)", fillcolor="#39e5c5"] ;
713 -> 714 ;
715 [label="gini = 0.5\nsamples = 2\nvalue = [0, 1, 1, 0, 0]\nclass = low (1)", fillcolor="#ffffff"] ;
713 -> 715 ;
716 [label="gini = 0.0\nsamples = 5\nvalue = [0, 0, 5, 0, 0]\nclass = good (2)", fillcolor="#39e5c5"] ;
710 -> 716 ;
717 [label="gini = 0.0\nsamples = 5\nvalue = [0, 0, 5, 0, 0]\nclass = good (2)", fillcolor="#39e5c5"] ;
695 -> 717 ;
718 [label="Previous Scores <= 69.5\ngini = 0.188\nsamples = 210\nvalue = [0, 22, 188, 0, 0]\nclass = good (2)", fillcolor="#50e8cc"] ;
618 -> 718 ;
719 [label="Hours Studied <= 1.5\ngini = 0.294\nsamples = 123\nvalue = [0, 22, 101, 0, 0]\nclass = good (2)", fillcolor="#64ebd2"] ;
718 -> 719 ;
720 [label="Sample Question Papers Practiced <= 6.5\ngini = 0.441\nsamples = 58\nvalue = [0, 19, 39, 0, 0]\nclass = good (2)", fillcolor="#99f2e1"] ;
719 -> 720 ;
721 [label="Sleep Hours <= 6.5\ngini = 0.484\nsamples = 39\nvalue = [0, 16, 23, 0, 0]\nclass = good (2)", fillcolor="#c3f7ed"] ;
720 -> 721 ;
722 [label="Sleep Hours <= 5.5\ngini = 0.492\nsamples = 16\nvalue = [0, 9, 7, 0, 0]\nclass = low (1)", fillcolor="#e2f9d3"] ;
721 -> 722 ;
723 [label="Previous Scores <= 67.5\ngini = 0.486\nsamples = 12\nvalue = [0, 5, 7, 0, 0]\nclass = good (2)", fillcolor="#c6f8ee"] ;
722 -> 723 ;
724 [label="Sleep Hours <= 4.5\ngini = 0.48\nsamples = 5\nvalue = [0, 3, 2, 0, 0]\nclass = low (1)", fillcolor="#d3f6bd"] ;
723 -> 724 ;
725 [label="Sample Question Papers Practiced <= 5.5\ngini = 0.375\nsamples = 4\nvalue = [0, 3, 1, 0, 0]\nclass = low (1)", fillcolor="#a7ee7b"] ;
724 -> 725 ;
726 [label="Sample Question Papers Practiced <= 3.5\ngini = 0.5\nsamples = 2\nvalue = [0, 1, 1, 0, 0]\nclass = low (1)", fillcolor="#ffffff"] ;
725 -> 726 ;
727 [label="gini = 0.0\nsamples = 1\nvalue = [0, 1, 0, 0, 0]\nclass = low (1)", fillcolor="#7be539"] ;
726 -> 727 ;
728 [label="gini = 0.0\nsamples = 1\nvalue = [0, 0, 1, 0, 0]\nclass = good (2)", fillcolor="#39e5c5"] ;
726 -> 728 ;
729 [label="gini = 0.0\nsamples = 2\nvalue = [0, 2, 0, 0, 0]\nclass = low (1)", fillcolor="#7be539"] ;
725 -> 729 ;
730 [label="gini = 0.0\nsamples = 1\nvalue = [0, 0, 1, 0, 0]\nclass = good (2)", fillcolor="#39e5c5"] ;
724 -> 730 ;
731 [label="Extracurricular Activities <= 0.5\ngini = 0.408\nsamples = 7\nvalue = [0, 2, 5, 0, 0]\nclass = good (2)", fillcolor="#88efdc"] ;
723 -> 731 ;
732 [label="Sleep Hours <= 4.5\ngini = 0.5\nsamples = 4\nvalue = [0, 2, 2, 0, 0]\nclass = low (1)", fillcolor="#ffffff"] ;
731 -> 732 ;
733 [label="Previous Scores <= 68.5\ngini = 0.5\nsamples = 2\nvalue = [0, 1, 1, 0, 0]\nclass = low (1)", fillcolor="#ffffff"] ;
732 -> 733 ;
734 [label="gini = 0.0\nsamples = 1\nvalue = [0, 0, 1, 0, 0]\nclass = good (2)", fillcolor="#39e5c5"] ;
733 -> 734 ;
735 [label="gini = 0.0\nsamples = 1\nvalue = [0, 1, 0, 0, 0]\nclass = low (1)", fillcolor="#7be539"] ;
733 -> 735 ;
736 [label="Previous Scores <= 68.5\ngini = 0.5\nsamples = 2\nvalue = [0, 1, 1, 0, 0]\nclass = low (1)", fillcolor="#ffffff"] ;
732 -> 736 ;
737 [label="gini = 0.0\nsamples = 1\nvalue = [0, 1, 0, 0, 0]\nclass = low (1)", fillcolor="#7be539"] ;
736 -> 737 ;
738 [label="gini = 0.0\nsamples = 1\nvalue = [0, 0, 1, 0, 0]\nclass = good (2)", fillcolor="#39e5c5"] ;
736 -> 738 ;
739 [label="gini = 0.0\nsamples = 3\nvalue = [0, 0, 3, 0, 0]\nclass = good (2)", fillcolor="#39e5c5"] ;
731 -> 739 ;
740 [label="gini = 0.0\nsamples = 4\nvalue = [0, 4, 0, 0, 0]\nclass = low (1)", fillcolor="#7be539"] ;
722 -> 740 ;
741 [label="Sample Question Papers Practiced <= 4.5\ngini = 0.423\nsamples = 23\nvalue = [0, 7, 16, 0, 0]\nclass = good (2)", fillcolor="#90f0de"] ;
721 -> 741 ;
742 [label="Extracurricular Activities <= 0.5\ngini = 0.465\nsamples = 19\nvalue = [0, 7, 12, 0, 0]\nclass = good (2)", fillcolor="#acf4e7"] ;
741 -> 742 ;
743 [label="Sleep Hours <= 8.5\ngini = 0.494\nsamples = 9\nvalue = [0, 5, 4, 0, 0]\nclass = low (1)", fillcolor="#e5fad7"] ;
742 -> 743 ;
744 [label="Sample Question Papers Practiced <= 1.5\ngini = 0.444\nsamples = 6\nvalue = [0, 4, 2, 0, 0]\nclass = low (1)", fillcolor="#bdf29c"] ;
743 -> 744 ;
745 [label="Previous Scores <= 67.5\ngini = 0.5\nsamples = 4\nvalue = [0, 2, 2, 0, 0]\nclass = low (1)", fillcolor="#ffffff"] ;
744 -> 745 ;
746 [label="gini = 0.0\nsamples = 1\nvalue = [0, 0, 1, 0, 0]\nclass = good (2)", fillcolor="#39e5c5"] ;
745 -> 746 ;
747 [label="Sleep Hours <= 7.5\ngini = 0.444\nsamples = 3\nvalue = [0, 2, 1, 0, 0]\nclass = low (1)", fillcolor="#bdf29c"] ;
745 -> 747 ;
748 [label="Sample Question Papers Practiced <= 0.5\ngini = 0.5\nsamples = 2\nvalue = [0, 1, 1, 0, 0]\nclass = low (1)", fillcolor="#ffffff"] ;
747 -> 748 ;
